digraph Tree {
node [shape=box, fontname="helvetica"] ;
edge [fontname="helvetica"] ;
0 [label="x[0] <= 278.5\ngini = 0.704\nsamples = 500\nvalue = [95, 182, 52, 171]"] ;
1 [label="x[0] <= 94.5\ngini = 0.698\nsamples = 480\nvalue = [88, 180, 47, 165]"] ;
0 -> 1 [labeldistance=2.5, labelangle=45, headlabel="True"] ;
2 [label="gini = 0.0\nsamples = 4\nvalue = [0, 4, 0, 0]"] ;
1 -> 2 ;
3 [label="x[0] <= 223.5\ngini = 0.699\nsamples = 476\nvalue = [88, 176, 47, 165]"] ;
1 -> 3 ;
4 [label="x[0] <= 222.5\ngini = 0.69\nsamples = 299\nvalue = [57, 120, 25, 97]"] ;
3 -> 4 ;
5 [label="x[0] <= 220.5\ngini = 0.695\nsamples = 290\nvalue = [57, 112, 25, 96]"] ;
4 -> 5 ;
6 [label="x[0] <= 174.0\ngini = 0.693\nsamples = 284\nvalue = [53, 110, 25, 96]"] ;
5 -> 6 ;
7 [label="x[0] <= 172.5\ngini = 0.682\nsamples = 89\nvalue = [16, 29, 7, 37]"] ;
6 -> 7 ;
8 [label="x[0] <= 165.0\ngini = 0.689\nsamples = 86\nvalue = [16, 29, 7, 34]"] ;
7 -> 8 ;
9 [label="x[0] <= 153.5\ngini = 0.678\nsamples = 71\nvalue = [10, 24, 7, 30]"] ;
8 -> 9 ;
10 [label="x[0] <= 150.5\ngini = 0.678\nsamples = 45\nvalue = [8, 18, 3, 16]"] ;
9 -> 10 ;
11 [label="x[2] <= 3.5\ngini = 0.652\nsamples = 32\nvalue = [7, 9, 1, 15]"] ;
10 -> 11 ;
12 [label="x[0] <= 132.5\ngini = 0.639\nsamples = 23\nvalue = [3, 9, 1, 10]"] ;
11 -> 12 ;
13 [label="x[0] <= 122.5\ngini = 0.278\nsamples = 6\nvalue = [0, 5, 0, 1]"] ;
12 -> 13 ;
14 [label="gini = 0.0\nsamples = 3\nvalue = [0, 3, 0, 0]"] ;
13 -> 14 ;
15 [label="x[0] <= 126.0\ngini = 0.444\nsamples = 3\nvalue = [0, 2, 0, 1]"] ;
13 -> 15 ;
16 [label="gini = 0.0\nsamples = 1\nvalue = [0, 0, 0, 1]"] ;
15 -> 16 ;
17 [label="gini = 0.0\nsamples = 2\nvalue = [0, 2, 0, 0]"] ;
15 -> 17 ;
18 [label="x[2] <= 2.5\ngini = 0.63\nsamples = 17\nvalue = [3, 4, 1, 9]"] ;
12 -> 18 ;
19 [label="x[1] <= 1.5\ngini = 0.37\nsamples = 9\nvalue = [1, 1, 0, 7]"] ;
18 -> 19 ;
20 [label="x[0] <= 141.5\ngini = 0.5\nsamples = 6\nvalue = [1, 1, 0, 4]"] ;
19 -> 20 ;
21 [label="x[0] <= 137.5\ngini = 0.5\nsamples = 2\nvalue = [0, 1, 0, 1]"] ;
20 -> 21 ;
22 [label="gini = 0.0\nsamples = 1\nvalue = [0, 0, 0, 1]"] ;
21 -> 22 ;
23 [label="gini = 0.0\nsamples = 1\nvalue = [0, 1, 0, 0]"] ;
21 -> 23 ;
24 [label="x[0] <= 146.5\ngini = 0.375\nsamples = 4\nvalue = [1, 0, 0, 3]"] ;
20 -> 24 ;
25 [label="x[0] <= 144.5\ngini = 0.5\nsamples = 2\nvalue = [1, 0, 0, 1]"] ;
24 -> 25 ;
26 [label="gini = 0.0\nsamples = 1\nvalue = [0, 0, 0, 1]"] ;
25 -> 26 ;
27 [label="gini = 0.0\nsamples = 1\nvalue = [1, 0, 0, 0]"] ;
25 -> 27 ;
28 [label="gini = 0.0\nsamples = 2\nvalue = [0, 0, 0, 2]"] ;
24 -> 28 ;
29 [label="gini = 0.0\nsamples = 3\nvalue = [0, 0, 0, 3]"] ;
19 -> 29 ;
30 [label="x[0] <= 136.0\ngini = 0.719\nsamples = 8\nvalue = [2, 3, 1, 2]"] ;
18 -> 30 ;
31 [label="gini = 0.0\nsamples = 1\nvalue = [0, 0, 1, 0]"] ;
30 -> 31 ;
32 [label="x[0] <= 138.5\ngini = 0.653\nsamples = 7\nvalue = [2, 3, 0, 2]"] ;
30 -> 32 ;
33 [label="gini = 0.0\nsamples = 1\nvalue = [0, 0, 0, 1]"] ;
32 -> 33 ;
34 [label="x[0] <= 149.5\ngini = 0.611\nsamples = 6\nvalue = [2, 3, 0, 1]"] ;
32 -> 34 ;
35 [label="x[1] <= 1.5\ngini = 0.48\nsamples = 5\nvalue = [2, 3, 0, 0]"] ;
34 -> 35 ;
36 [label="x[0] <= 141.0\ngini = 0.375\nsamples = 4\nvalue = [1, 3, 0, 0]"] ;
35 -> 36 ;
37 [label="x[0] <= 139.5\ngini = 0.5\nsamples = 2\nvalue = [1, 1, 0, 0]"] ;
36 -> 37 ;
38 [label="gini = 0.0\nsamples = 1\nvalue = [0, 1, 0, 0]"] ;
37 -> 38 ;
39 [label="gini = 0.0\nsamples = 1\nvalue = [1, 0, 0, 0]"] ;
37 -> 39 ;
40 [label="gini = 0.0\nsamples = 2\nvalue = [0, 2, 0, 0]"] ;
36 -> 40 ;
41 [label="gini = 0.0\nsamples = 1\nvalue = [1, 0, 0, 0]"] ;
35 -> 41 ;
42 [label="gini = 0.0\nsamples = 1\nvalue = [0, 0, 0, 1]"] ;
34 -> 42 ;
43 [label="x[2] <= 4.5\ngini = 0.494\nsamples = 9\nvalue = [4, 0, 0, 5]"] ;
11 -> 43 ;
44 [label="x[0] <= 106.0\ngini = 0.444\nsamples = 6\nvalue = [4, 0, 0, 2]"] ;
43 -> 44 ;
45 [label="gini = 0.0\nsamples = 1\nvalue = [0, 0, 0, 1]"] ;
44 -> 45 ;
46 [label="x[0] <= 127.0\ngini = 0.32\nsamples = 5\nvalue = [4, 0, 0, 1]"] ;
44 -> 46 ;
47 [label="gini = 0.0\nsamples = 2\nvalue = [2, 0, 0, 0]"] ;
46 -> 47 ;
48 [label="x[0] <= 137.5\ngini = 0.444\nsamples = 3\nvalue = [2, 0, 0, 1]"] ;
46 -> 48 ;
49 [label="gini = 0.0\nsamples = 1\nvalue = [0, 0, 0, 1]"] ;
48 -> 49 ;
50 [label="gini = 0.0\nsamples = 2\nvalue = [2, 0, 0, 0]"] ;
48 -> 50 ;
51 [label="gini = 0.0\nsamples = 3\nvalue = [0, 0, 0, 3]"] ;
43 -> 51 ;
52 [label="x[1] <= 1.5\ngini = 0.485\nsamples = 13\nvalue = [1, 9, 2, 1]"] ;
10 -> 52 ;
53 [label="x[0] <= 151.5\ngini = 0.219\nsamples = 8\nvalue = [0, 7, 0, 1]"] ;
52 -> 53 ;
54 [label="x[2] <= 2.0\ngini = 0.375\nsamples = 4\nvalue = [0, 3, 0, 1]"] ;
53 -> 54 ;
55 [label="gini = 0.0\nsamples = 1\nvalue = [0, 1, 0, 0]"] ;
54 -> 55 ;
56 [label="x[2] <= 3.5\ngini = 0.444\nsamples = 3\nvalue = [0, 2, 0, 1]"] ;
54 -> 56 ;
57 [label="gini = 0.5\nsamples = 2\nvalue = [0, 1, 0, 1]"] ;
56 -> 57 ;
58 [label="gini = 0.0\nsamples = 1\nvalue = [0, 1, 0, 0]"] ;
56 -> 58 ;
59 [label="gini = 0.0\nsamples = 4\nvalue = [0, 4, 0, 0]"] ;
53 -> 59 ;
60 [label="x[2] <= 1.5\ngini = 0.64\nsamples = 5\nvalue = [1, 2, 2, 0]"] ;
52 -> 60 ;
61 [label="gini = 0.0\nsamples = 1\nvalue = [1, 0, 0, 0]"] ;
60 -> 61 ;
62 [label="x[2] <= 2.5\ngini = 0.5\nsamples = 4\nvalue = [0, 2, 2, 0]"] ;
60 -> 62 ;
63 [label="gini = 0.0\nsamples = 1\nvalue = [0, 1, 0, 0]"] ;
62 -> 63 ;
64 [label="x[2] <= 4.5\ngini = 0.444\nsamples = 3\nvalue = [0, 1, 2, 0]"] ;
62 -> 64 ;
65 [label="gini = 0.0\nsamples = 2\nvalue = [0, 0, 2, 0]"] ;
64 -> 65 ;
66 [label="gini = 0.0\nsamples = 1\nvalue = [0, 1, 0, 0]"] ;
64 -> 66 ;
67 [label="x[2] <= 2.5\ngini = 0.627\nsamples = 26\nvalue = [2, 6, 4, 14]"] ;
9 -> 67 ;
68 [label="x[0] <= 155.5\ngini = 0.656\nsamples = 8\nvalue = [1, 4, 2, 1]"] ;
67 -> 68 ;
69 [label="x[2] <= 1.5\ngini = 0.5\nsamples = 2\nvalue = [0, 0, 1, 1]"] ;
68 -> 69 ;
70 [label="gini = 0.0\nsamples = 1\nvalue = [0, 0, 0, 1]"] ;
69 -> 70 ;
71 [label="gini = 0.0\nsamples = 1\nvalue = [0, 0, 1, 0]"] ;
69 -> 71 ;
72 [label="x[2] <= 1.5\ngini = 0.5\nsamples = 6\nvalue = [1, 4, 1, 0]"] ;
68 -> 72 ;
73 [label="x[1] <= 1.5\ngini = 0.5\nsamples = 2\nvalue = [0, 1, 1, 0]"] ;
72 -> 73 ;
74 [label="gini = 0.0\nsamples = 1\nvalue = [0, 1, 0, 0]"] ;
73 -> 74 ;
75 [label="gini = 0.0\nsamples = 1\nvalue = [0, 0, 1, 0]"] ;
73 -> 75 ;
76 [label="x[0] <= 163.0\ngini = 0.375\nsamples = 4\nvalue = [1, 3, 0, 0]"] ;
72 -> 76 ;
77 [label="gini = 0.0\nsamples = 3\nvalue = [0, 3, 0, 0]"] ;
76 -> 77 ;
78 [label="gini = 0.0\nsamples = 1\nvalue = [1, 0, 0, 0]"] ;
76 -> 78 ;
79 [label="x[2] <= 4.5\ngini = 0.451\nsamples = 18\nvalue = [1, 2, 2, 13]"] ;
67 -> 79 ;
80 [label="x[0] <= 160.0\ngini = 0.367\nsamples = 14\nvalue = [1, 1, 1, 11]"] ;
79 -> 80 ;
81 [label="gini = 0.0\nsamples = 7\nvalue = [0, 0, 0, 7]"] ;
80 -> 81 ;
82 [label="x[1] <= 1.5\ngini = 0.612\nsamples = 7\nvalue = [1, 1, 1, 4]"] ;
80 -> 82 ;
83 [label="x[0] <= 162.0\ngini = 0.667\nsamples = 3\nvalue = [1, 0, 1, 1]"] ;
82 -> 83 ;
84 [label="gini = 0.0\nsamples = 1\nvalue = [1, 0, 0, 0]"] ;
83 -> 84 ;
85 [label="x[0] <= 163.5\ngini = 0.5\nsamples = 2\nvalue = [0, 0, 1, 1]"] ;
83 -> 85 ;
86 [label="gini = 0.0\nsamples = 1\nvalue = [0, 0, 1, 0]"] ;
85 -> 86 ;
87 [label="gini = 0.0\nsamples = 1\nvalue = [0, 0, 0, 1]"] ;
85 -> 87 ;
88 [label="x[0] <= 162.0\ngini = 0.375\nsamples = 4\nvalue = [0, 1, 0, 3]"] ;
82 -> 88 ;
89 [label="gini = 0.0\nsamples = 2\nvalue = [0, 0, 0, 2]"] ;
88 -> 89 ;
90 [label="x[0] <= 163.5\ngini = 0.5\nsamples = 2\nvalue = [0, 1, 0, 1]"] ;
88 -> 90 ;
91 [label="gini = 0.0\nsamples = 1\nvalue = [0, 1, 0, 0]"] ;
90 -> 91 ;
92 [label="gini = 0.0\nsamples = 1\nvalue = [0, 0, 0, 1]"] ;
90 -> 92 ;
93 [label="x[0] <= 155.5\ngini = 0.625\nsamples = 4\nvalue = [0, 1, 1, 2]"] ;
79 -> 93 ;
94 [label="gini = 0.0\nsamples = 1\nvalue = [0, 0, 1, 0]"] ;
93 -> 94 ;
95 [label="x[1] <= 1.5\ngini = 0.444\nsamples = 3\nvalue = [0, 1, 0, 2]"] ;
93 -> 95 ;
96 [label="gini = 0.0\nsamples = 1\nvalue = [0, 1, 0, 0]"] ;
95 -> 96 ;
97 [label="gini = 0.0\nsamples = 2\nvalue = [0, 0, 0, 2]"] ;
95 -> 97 ;
98 [label="x[2] <= 2.5\ngini = 0.658\nsamples = 15\nvalue = [6, 5, 0, 4]"] ;
8 -> 98 ;
99 [label="gini = 0.0\nsamples = 3\nvalue = [3, 0, 0, 0]"] ;
98 -> 99 ;
100 [label="x[0] <= 166.5\ngini = 0.653\nsamples = 12\nvalue = [3, 5, 0, 4]"] ;
98 -> 100 ;
101 [label="gini = 0.0\nsamples = 1\nvalue = [1, 0, 0, 0]"] ;
100 -> 101 ;
102 [label="x[0] <= 168.5\ngini = 0.628\nsamples = 11\nvalue = [2, 5, 0, 4]"] ;
100 -> 102 ;
103 [label="x[2] <= 4.5\ngini = 0.5\nsamples = 6\nvalue = [0, 3, 0, 3]"] ;
102 -> 103 ;
104 [label="x[1] <= 1.5\ngini = 0.48\nsamples = 5\nvalue = [0, 2, 0, 3]"] ;
103 -> 104 ;
105 [label="gini = 0.0\nsamples = 1\nvalue = [0, 0, 0, 1]"] ;
104 -> 105 ;
106 [label="x[2] <= 3.5\ngini = 0.5\nsamples = 4\nvalue = [0, 2, 0, 2]"] ;
104 -> 106 ;
107 [label="gini = 0.5\nsamples = 2\nvalue = [0, 1, 0, 1]"] ;
106 -> 107 ;
108 [label="gini = 0.5\nsamples = 2\nvalue = [0, 1, 0, 1]"] ;
106 -> 108 ;
109 [label="gini = 0.0\nsamples = 1\nvalue = [0, 1, 0, 0]"] ;
103 -> 109 ;
110 [label="x[0] <= 170.0\ngini = 0.64\nsamples = 5\nvalue = [2, 2, 0, 1]"] ;
102 -> 110 ;
111 [label="gini = 0.0\nsamples = 2\nvalue = [2, 0, 0, 0]"] ;
110 -> 111 ;
112 [label="x[2] <= 4.5\ngini = 0.444\nsamples = 3\nvalue = [0, 2, 0, 1]"] ;
110 -> 112 ;
113 [label="gini = 0.0\nsamples = 2\nvalue = [0, 2, 0, 0]"] ;
112 -> 113 ;
114 [label="gini = 0.0\nsamples = 1\nvalue = [0, 0, 0, 1]"] ;
112 -> 114 ;
115 [label="gini = 0.0\nsamples = 3\nvalue = [0, 0, 0, 3]"] ;
7 -> 115 ;
116 [label="x[2] <= 3.5\ngini = 0.691\nsamples = 195\nvalue = [37, 81, 18, 59]"] ;
6 -> 116 ;
117 [label="x[0] <= 180.5\ngini = 0.7\nsamples = 116\nvalue = [24, 41, 10, 41]"] ;
116 -> 117 ;
118 [label="x[0] <= 176.5\ngini = 0.582\nsamples = 19\nvalue = [2, 11, 1, 5]"] ;
117 -> 118 ;
119 [label="x[2] <= 1.5\ngini = 0.571\nsamples = 7\nvalue = [1, 2, 0, 4]"] ;
118 -> 119 ;
120 [label="gini = 0.0\nsamples = 1\nvalue = [0, 1, 0, 0]"] ;
119 -> 120 ;
121 [label="x[2] <= 2.5\ngini = 0.5\nsamples = 6\nvalue = [1, 1, 0, 4]"] ;
119 -> 121 ;
122 [label="gini = 0.0\nsamples = 3\nvalue = [0, 0, 0, 3]"] ;
121 -> 122 ;
123 [label="x[0] <= 175.5\ngini = 0.667\nsamples = 3\nvalue = [1, 1, 0, 1]"] ;
121 -> 123 ;
124 [label="gini = 0.0\nsamples = 1\nvalue = [1, 0, 0, 0]"] ;
123 -> 124 ;
125 [label="gini = 0.5\nsamples = 2\nvalue = [0, 1, 0, 1]"] ;
123 -> 125 ;
126 [label="x[2] <= 1.5\ngini = 0.417\nsamples = 12\nvalue = [1, 9, 1, 1]"] ;
118 -> 126 ;
127 [label="x[1] <= 1.5\ngini = 0.444\nsamples = 3\nvalue = [0, 2, 0, 1]"] ;
126 -> 127 ;
128 [label="gini = 0.0\nsamples = 1\nvalue = [0, 0, 0, 1]"] ;
127 -> 128 ;
129 [label="gini = 0.0\nsamples = 2\nvalue = [0, 2, 0, 0]"] ;
127 -> 129 ;
130 [label="x[1] <= 1.5\ngini = 0.37\nsamples = 9\nvalue = [1, 7, 1, 0]"] ;
126 -> 130 ;
131 [label="gini = 0.0\nsamples = 5\nvalue = [0, 5, 0, 0]"] ;
130 -> 131 ;
132 [label="x[2] <= 2.5\ngini = 0.625\nsamples = 4\nvalue = [1, 2, 1, 0]"] ;
130 -> 132 ;
133 [label="gini = 0.0\nsamples = 1\nvalue = [0, 1, 0, 0]"] ;
132 -> 133 ;
134 [label="x[0] <= 177.5\ngini = 0.667\nsamples = 3\nvalue = [1, 1, 1, 0]"] ;
132 -> 134 ;
135 [label="gini = 0.0\nsamples = 1\nvalue = [0, 1, 0, 0]"] ;
134 -> 135 ;
136 [label="x[0] <= 178.5\ngini = 0.5\nsamples = 2\nvalue = [1, 0, 1, 0]"] ;
134 -> 136 ;
137 [label="gini = 0.0\nsamples = 1\nvalue = [0, 0, 1, 0]"] ;
136 -> 137 ;
138 [label="gini = 0.0\nsamples = 1\nvalue = [1, 0, 0, 0]"] ;
136 -> 138 ;
139 [label="x[2] <= 1.5\ngini = 0.707\nsamples = 97\nvalue = [22, 30, 9, 36]"] ;
117 -> 139 ;
140 [label="x[0] <= 215.5\ngini = 0.686\nsamples = 13\nvalue = [6, 2, 2, 3]"] ;
139 -> 140 ;
141 [label="x[1] <= 1.5\ngini = 0.653\nsamples = 12\nvalue = [6, 2, 1, 3]"] ;
140 -> 141 ;
142 [label="x[0] <= 188.5\ngini = 0.449\nsamples = 7\nvalue = [5, 1, 0, 1]"] ;
141 -> 142 ;
143 [label="x[0] <= 183.5\ngini = 0.5\nsamples = 2\nvalue = [1, 0, 0, 1]"] ;
142 -> 143 ;
144 [label="gini = 0.0\nsamples = 1\nvalue = [1, 0, 0, 0]"] ;
143 -> 144 ;
145 [label="gini = 0.0\nsamples = 1\nvalue = [0, 0, 0, 1]"] ;
143 -> 145 ;
146 [label="x[0] <= 202.0\ngini = 0.32\nsamples = 5\nvalue = [4, 1, 0, 0]"] ;
142 -> 146 ;
147 [label="gini = 0.0\nsamples = 3\nvalue = [3, 0, 0, 0]"] ;
146 -> 147 ;
148 [label="x[0] <= 208.5\ngini = 0.5\nsamples = 2\nvalue = [1, 1, 0, 0]"] ;
146 -> 148 ;
149 [label="gini = 0.0\nsamples = 1\nvalue = [0, 1, 0, 0]"] ;
148 -> 149 ;
150 [label="gini = 0.0\nsamples = 1\nvalue = [1, 0, 0, 0]"] ;
148 -> 150 ;
151 [label="x[0] <= 186.0\ngini = 0.72\nsamples = 5\nvalue = [1, 1, 1, 2]"] ;
141 -> 151 ;
152 [label="gini = 0.0\nsamples = 1\nvalue = [0, 0, 0, 1]"] ;
151 -> 152 ;
153 [label="x[0] <= 192.5\ngini = 0.75\nsamples = 4\nvalue = [1, 1, 1, 1]"] ;
151 -> 153 ;
154 [label="gini = 0.0\nsamples = 1\nvalue = [0, 0, 1, 0]"] ;
153 -> 154 ;
155 [label="x[0] <= 198.0\ngini = 0.667\nsamples = 3\nvalue = [1, 1, 0, 1]"] ;
153 -> 155 ;
156 [label="gini = 0.0\nsamples = 1\nvalue = [0, 1, 0, 0]"] ;
155 -> 156 ;
157 [label="x[0] <= 205.0\ngini = 0.5\nsamples = 2\nvalue = [1, 0, 0, 1]"] ;
155 -> 157 ;
158 [label="gini = 0.0\nsamples = 1\nvalue = [1, 0, 0, 0]"] ;
157 -> 158 ;
159 [label="gini = 0.0\nsamples = 1\nvalue = [0, 0, 0, 1]"] ;
157 -> 159 ;
160 [label="gini = 0.0\nsamples = 1\nvalue = [0, 0, 1, 0]"] ;
140 -> 160 ;
161 [label="x[0] <= 188.5\ngini = 0.691\nsamples = 84\nvalue = [16, 28, 7, 33]"] ;
139 -> 161 ;
162 [label="x[2] <= 2.5\ngini = 0.72\nsamples = 15\nvalue = [5, 5, 3, 2]"] ;
161 -> 162 ;
163 [label="x[1] <= 1.5\ngini = 0.612\nsamples = 7\nvalue = [4, 1, 1, 1]"] ;
162 -> 163 ;
164 [label="x[0] <= 182.5\ngini = 0.375\nsamples = 4\nvalue = [3, 1, 0, 0]"] ;
163 -> 164 ;
165 [label="x[0] <= 181.5\ngini = 0.5\nsamples = 2\nvalue = [1, 1, 0, 0]"] ;
164 -> 165 ;
166 [label="gini = 0.0\nsamples = 1\nvalue = [1, 0, 0, 0]"] ;
165 -> 166 ;
167 [label="gini = 0.0\nsamples = 1\nvalue = [0, 1, 0, 0]"] ;
165 -> 167 ;
168 [label="gini = 0.0\nsamples = 2\nvalue = [2, 0, 0, 0]"] ;
164 -> 168 ;
169 [label="x[0] <= 185.0\ngini = 0.667\nsamples = 3\nvalue = [1, 0, 1, 1]"] ;
163 -> 169 ;
170 [label="gini = 0.0\nsamples = 1\nvalue = [0, 0, 1, 0]"] ;
169 -> 170 ;
171 [label="gini = 0.5\nsamples = 2\nvalue = [1, 0, 0, 1]"] ;
169 -> 171 ;
172 [label="x[1] <= 1.5\ngini = 0.656\nsamples = 8\nvalue = [1, 4, 2, 1]"] ;
162 -> 172 ;
173 [label="x[0] <= 184.0\ngini = 0.75\nsamples = 4\nvalue = [1, 1, 1, 1]"] ;
172 -> 173 ;
174 [label="gini = 0.0\nsamples = 1\nvalue = [0, 0, 1, 0]"] ;
173 -> 174 ;
175 [label="x[0] <= 185.5\ngini = 0.667\nsamples = 3\nvalue = [1, 1, 0, 1]"] ;
173 -> 175 ;
176 [label="gini = 0.0\nsamples = 1\nvalue = [0, 0, 0, 1]"] ;
175 -> 176 ;
177 [label="x[0] <= 187.0\ngini = 0.5\nsamples = 2\nvalue = [1, 1, 0, 0]"] ;
175 -> 177 ;
178 [label="gini = 0.0\nsamples = 1\nvalue = [0, 1, 0, 0]"] ;
177 -> 178 ;
179 [label="gini = 0.0\nsamples = 1\nvalue = [1, 0, 0, 0]"] ;
177 -> 179 ;
180 [label="x[0] <= 184.0\ngini = 0.375\nsamples = 4\nvalue = [0, 3, 1, 0]"] ;
172 -> 180 ;
181 [label="gini = 0.0\nsamples = 1\nvalue = [0, 1, 0, 0]"] ;
180 -> 181 ;
182 [label="x[0] <= 186.5\ngini = 0.444\nsamples = 3\nvalue = [0, 2, 1, 0]"] ;
180 -> 182 ;
183 [label="gini = 0.5\nsamples = 2\nvalue = [0, 1, 1, 0]"] ;
182 -> 183 ;
184 [label="gini = 0.0\nsamples = 1\nvalue = [0, 1, 0, 0]"] ;
182 -> 184 ;
185 [label="x[0] <= 217.5\ngini = 0.658\nsamples = 69\nvalue = [11, 23, 4, 31]"] ;
161 -> 185 ;
186 [label="x[0] <= 215.5\ngini = 0.633\nsamples = 63\nvalue = [8, 22, 3, 30]"] ;
185 -> 186 ;
187 [label="x[0] <= 209.5\ngini = 0.646\nsamples = 59\nvalue = [8, 22, 3, 26]"] ;
186 -> 187 ;
188 [label="x[0] <= 192.5\ngini = 0.629\nsamples = 47\nvalue = [5, 16, 3, 23]"] ;
187 -> 188 ;
189 [label="x[0] <= 190.5\ngini = 0.496\nsamples = 11\nvalue = [0, 6, 0, 5]"] ;
188 -> 189 ;
190 [label="x[1] <= 1.5\ngini = 0.48\nsamples = 5\nvalue = [0, 3, 0, 2]"] ;
189 -> 190 ;
191 [label="x[0] <= 189.5\ngini = 0.444\nsamples = 3\nvalue = [0, 1, 0, 2]"] ;
190 -> 191 ;
192 [label="gini = 0.0\nsamples = 2\nvalue = [0, 0, 0, 2]"] ;
191 -> 192 ;
193 [label="gini = 0.0\nsamples = 1\nvalue = [0, 1, 0, 0]"] ;
191 -> 193 ;
194 [label="gini = 0.0\nsamples = 2\nvalue = [0, 2, 0, 0]"] ;
190 -> 194 ;
195 [label="x[1] <= 1.5\ngini = 0.5\nsamples = 6\nvalue = [0, 3, 0, 3]"] ;
189 -> 195 ;
196 [label="gini = 0.0\nsamples = 1\nvalue = [0, 1, 0, 0]"] ;
195 -> 196 ;
197 [label="x[2] <= 2.5\ngini = 0.48\nsamples = 5\nvalue = [0, 2, 0, 3]"] ;
195 -> 197 ;
198 [label="x[0] <= 191.5\ngini = 0.444\nsamples = 3\nvalue = [0, 1, 0, 2]"] ;
197 -> 198 ;
199 [label="gini = 0.0\nsamples = 2\nvalue = [0, 0, 0, 2]"] ;
198 -> 199 ;
200 [label="gini = 0.0\nsamples = 1\nvalue = [0, 1, 0, 0]"] ;
198 -> 200 ;
201 [label="x[0] <= 191.5\ngini = 0.5\nsamples = 2\nvalue = [0, 1, 0, 1]"] ;
197 -> 201 ;
202 [label="gini = 0.0\nsamples = 1\nvalue = [0, 1, 0, 0]"] ;
201 -> 202 ;
203 [label="gini = 0.0\nsamples = 1\nvalue = [0, 0, 0, 1]"] ;
201 -> 203 ;
204 [label="x[0] <= 193.5\ngini = 0.647\nsamples = 36\nvalue = [5, 10, 3, 18]"] ;
188 -> 204 ;
205 [label="x[2] <= 2.5\ngini = 0.444\nsamples = 3\nvalue = [2, 0, 0, 1]"] ;
204 -> 205 ;
206 [label="gini = 0.0\nsamples = 1\nvalue = [0, 0, 0, 1]"] ;
205 -> 206 ;
207 [label="gini = 0.0\nsamples = 2\nvalue = [2, 0, 0, 0]"] ;
205 -> 207 ;
208 [label="x[0] <= 194.5\ngini = 0.626\nsamples = 33\nvalue = [3, 10, 3, 17]"] ;
204 -> 208 ;
209 [label="x[1] <= 1.5\ngini = 0.375\nsamples = 4\nvalue = [0, 0, 1, 3]"] ;
208 -> 209 ;
210 [label="gini = 0.5\nsamples = 2\nvalue = [0, 0, 1, 1]"] ;
209 -> 210 ;
211 [label="gini = 0.0\nsamples = 2\nvalue = [0, 0, 0, 2]"] ;
209 -> 211 ;
212 [label="x[0] <= 197.5\ngini = 0.633\nsamples = 29\nvalue = [3, 10, 2, 14]"] ;
208 -> 212 ;
213 [label="x[0] <= 195.5\ngini = 0.444\nsamples = 6\nvalue = [0, 4, 0, 2]"] ;
212 -> 213 ;
214 [label="gini = 0.5\nsamples = 2\nvalue = [0, 1, 0, 1]"] ;
213 -> 214 ;
215 [label="x[1] <= 1.5\ngini = 0.375\nsamples = 4\nvalue = [0, 3, 0, 1]"] ;
213 -> 215 ;
216 [label="gini = 0.5\nsamples = 2\nvalue = [0, 1, 0, 1]"] ;
215 -> 216 ;
217 [label="gini = 0.0\nsamples = 2\nvalue = [0, 2, 0, 0]"] ;
215 -> 217 ;
218 [label="x[1] <= 1.5\ngini = 0.635\nsamples = 23\nvalue = [3, 6, 2, 12]"] ;
212 -> 218 ;
219 [label="x[0] <= 205.5\ngini = 0.625\nsamples = 8\nvalue = [0, 2, 2, 4]"] ;
218 -> 219 ;
220 [label="x[0] <= 203.5\ngini = 0.444\nsamples = 3\nvalue = [0, 0, 2, 1]"] ;
219 -> 220 ;
221 [label="gini = 0.0\nsamples = 1\nvalue = [0, 0, 0, 1]"] ;
220 -> 221 ;
222 [label="gini = 0.0\nsamples = 2\nvalue = [0, 0, 2, 0]"] ;
220 -> 222 ;
223 [label="x[0] <= 207.5\ngini = 0.48\nsamples = 5\nvalue = [0, 2, 0, 3]"] ;
219 -> 223 ;
224 [label="gini = 0.0\nsamples = 2\nvalue = [0, 0, 0, 2]"] ;
223 -> 224 ;
225 [label="x[2] <= 2.5\ngini = 0.444\nsamples = 3\nvalue = [0, 2, 0, 1]"] ;
223 -> 225 ;
226 [label="gini = 0.0\nsamples = 1\nvalue = [0, 1, 0, 0]"] ;
225 -> 226 ;
227 [label="gini = 0.5\nsamples = 2\nvalue = [0, 1, 0, 1]"] ;
225 -> 227 ;
228 [label="x[0] <= 199.0\ngini = 0.604\nsamples = 15\nvalue = [3, 4, 0, 8]"] ;
218 -> 228 ;
229 [label="gini = 0.5\nsamples = 2\nvalue = [1, 0, 0, 1]"] ;
228 -> 229 ;
230 [label="x[0] <= 208.0\ngini = 0.592\nsamples = 13\nvalue = [2, 4, 0, 7]"] ;
228 -> 230 ;
231 [label="x[0] <= 206.5\ngini = 0.611\nsamples = 12\nvalue = [2, 4, 0, 6]"] ;
230 -> 231 ;
232 [label="x[0] <= 203.0\ngini = 0.54\nsamples = 10\nvalue = [1, 3, 0, 6]"] ;
231 -> 232 ;
233 [label="x[0] <= 201.0\ngini = 0.625\nsamples = 4\nvalue = [1, 1, 0, 2]"] ;
232 -> 233 ;
234 [label="gini = 0.5\nsamples = 2\nvalue = [0, 1, 0, 1]"] ;
233 -> 234 ;
235 [label="gini = 0.5\nsamples = 2\nvalue = [1, 0, 0, 1]"] ;
233 -> 235 ;
236 [label="x[0] <= 205.5\ngini = 0.444\nsamples = 6\nvalue = [0, 2, 0, 4]"] ;
232 -> 236 ;
237 [label="x[0] <= 204.5\ngini = 0.375\nsamples = 4\nvalue = [0, 1, 0, 3]"] ;
236 -> 237 ;
238 [label="gini = 0.444\nsamples = 3\nvalue = [0, 1, 0, 2]"] ;
237 -> 238 ;
239 [label="gini = 0.0\nsamples = 1\nvalue = [0, 0, 0, 1]"] ;
237 -> 239 ;
240 [label="gini = 0.5\nsamples = 2\nvalue = [0, 1, 0, 1]"] ;
236 -> 240 ;
241 [label="gini = 0.5\nsamples = 2\nvalue = [1, 1, 0, 0]"] ;
231 -> 241 ;
242 [label="gini = 0.0\nsamples = 1\nvalue = [0, 0, 0, 1]"] ;
230 -> 242 ;
243 [label="x[0] <= 212.5\ngini = 0.625\nsamples = 12\nvalue = [3, 6, 0, 3]"] ;
187 -> 243 ;
244 [label="x[0] <= 210.5\ngini = 0.278\nsamples = 6\nvalue = [1, 5, 0, 0]"] ;
243 -> 244 ;
245 [label="gini = 0.0\nsamples = 2\nvalue = [0, 2, 0, 0]"] ;
244 -> 245 ;
246 [label="x[1] <= 1.5\ngini = 0.375\nsamples = 4\nvalue = [1, 3, 0, 0]"] ;
244 -> 246 ;
247 [label="gini = 0.0\nsamples = 1\nvalue = [0, 1, 0, 0]"] ;
246 -> 247 ;
248 [label="x[0] <= 211.5\ngini = 0.444\nsamples = 3\nvalue = [1, 2, 0, 0]"] ;
246 -> 248 ;
249 [label="gini = 0.5\nsamples = 2\nvalue = [1, 1, 0, 0]"] ;
248 -> 249 ;
250 [label="gini = 0.0\nsamples = 1\nvalue = [0, 1, 0, 0]"] ;
248 -> 250 ;
251 [label="x[0] <= 214.5\ngini = 0.611\nsamples = 6\nvalue = [2, 1, 0, 3]"] ;
243 -> 251 ;
252 [label="x[0] <= 213.5\ngini = 0.48\nsamples = 5\nvalue = [2, 0, 0, 3]"] ;
251 -> 252 ;
253 [label="gini = 0.0\nsamples = 1\nvalue = [1, 0, 0, 0]"] ;
252 -> 253 ;
254 [label="x[1] <= 1.5\ngini = 0.375\nsamples = 4\nvalue = [1, 0, 0, 3]"] ;
252 -> 254 ;
255 [label="gini = 0.0\nsamples = 2\nvalue = [0, 0, 0, 2]"] ;
254 -> 255 ;
256 [label="gini = 0.5\nsamples = 2\nvalue = [1, 0, 0, 1]"] ;
254 -> 256 ;
257 [label="gini = 0.0\nsamples = 1\nvalue = [0, 1, 0, 0]"] ;
251 -> 257 ;
258 [label="gini = 0.0\nsamples = 4\nvalue = [0, 0, 0, 4]"] ;
186 -> 258 ;
259 [label="x[0] <= 219.5\ngini = 0.667\nsamples = 6\nvalue = [3, 1, 1, 1]"] ;
185 -> 259 ;
260 [label="x[0] <= 218.5\ngini = 0.375\nsamples = 4\nvalue = [3, 1, 0, 0]"] ;
259 -> 260 ;
261 [label="x[2] <= 2.5\ngini = 0.5\nsamples = 2\nvalue = [1, 1, 0, 0]"] ;
260 -> 261 ;
262 [label="gini = 0.0\nsamples = 1\nvalue = [1, 0, 0, 0]"] ;
261 -> 262 ;
263 [label="gini = 0.0\nsamples = 1\nvalue = [0, 1, 0, 0]"] ;
261 -> 263 ;
264 [label="gini = 0.0\nsamples = 2\nvalue = [2, 0, 0, 0]"] ;
260 -> 264 ;
265 [label="x[1] <= 1.5\ngini = 0.5\nsamples = 2\nvalue = [0, 0, 1, 1]"] ;
259 -> 265 ;
266 [label="gini = 0.0\nsamples = 1\nvalue = [0, 0, 1, 0]"] ;
265 -> 266 ;
267 [label="gini = 0.0\nsamples = 1\nvalue = [0, 0, 0, 1]"] ;
265 -> 267 ;
268 [label="x[0] <= 189.5\ngini = 0.654\nsamples = 79\nvalue = [13, 40, 8, 18]"] ;
116 -> 268 ;
269 [label="x[1] <= 1.5\ngini = 0.493\nsamples = 19\nvalue = [1, 13, 3, 2]"] ;
268 -> 269 ;
270 [label="x[2] <= 4.5\ngini = 0.298\nsamples = 11\nvalue = [0, 9, 0, 2]"] ;
269 -> 270 ;
271 [label="x[0] <= 183.0\ngini = 0.198\nsamples = 9\nvalue = [0, 8, 0, 1]"] ;
270 -> 271 ;
272 [label="gini = 0.0\nsamples = 5\nvalue = [0, 5, 0, 0]"] ;
271 -> 272 ;
273 [label="x[0] <= 185.5\ngini = 0.375\nsamples = 4\nvalue = [0, 3, 0, 1]"] ;
271 -> 273 ;
274 [label="gini = 0.5\nsamples = 2\nvalue = [0, 1, 0, 1]"] ;
273 -> 274 ;
275 [label="gini = 0.0\nsamples = 2\nvalue = [0, 2, 0, 0]"] ;
273 -> 275 ;
276 [label="x[0] <= 184.0\ngini = 0.5\nsamples = 2\nvalue = [0, 1, 0, 1]"] ;
270 -> 276 ;
277 [label="gini = 0.0\nsamples = 1\nvalue = [0, 0, 0, 1]"] ;
276 -> 277 ;
278 [label="gini = 0.0\nsamples = 1\nvalue = [0, 1, 0, 0]"] ;
276 -> 278 ;
279 [label="x[0] <= 176.5\ngini = 0.594\nsamples = 8\nvalue = [1, 4, 3, 0]"] ;
269 -> 279 ;
280 [label="gini = 0.0\nsamples = 2\nvalue = [0, 2, 0, 0]"] ;
279 -> 280 ;
281 [label="x[2] <= 4.5\ngini = 0.611\nsamples = 6\nvalue = [1, 2, 3, 0]"] ;
279 -> 281 ;
282 [label="x[0] <= 184.5\ngini = 0.375\nsamples = 4\nvalue = [0, 1, 3, 0]"] ;
281 -> 282 ;
283 [label="gini = 0.0\nsamples = 2\nvalue = [0, 0, 2, 0]"] ;
282 -> 283 ;
284 [label="x[0] <= 188.0\ngini = 0.5\nsamples = 2\nvalue = [0, 1, 1, 0]"] ;
282 -> 284 ;
285 [label="gini = 0.0\nsamples = 1\nvalue = [0, 1, 0, 0]"] ;
284 -> 285 ;
286 [label="gini = 0.0\nsamples = 1\nvalue = [0, 0, 1, 0]"] ;
284 -> 286 ;
287 [label="x[0] <= 184.0\ngini = 0.5\nsamples = 2\nvalue = [1, 1, 0, 0]"] ;
281 -> 287 ;
288 [label="gini = 0.0\nsamples = 1\nvalue = [1, 0, 0, 0]"] ;
287 -> 288 ;
289 [label="gini = 0.0\nsamples = 1\nvalue = [0, 1, 0, 0]"] ;
287 -> 289 ;
290 [label="x[0] <= 216.5\ngini = 0.679\nsamples = 60\nvalue = [12, 27, 5, 16]"] ;
268 -> 290 ;
291 [label="x[0] <= 213.5\ngini = 0.694\nsamples = 51\nvalue = [12, 21, 4, 14]"] ;
290 -> 291 ;
292 [label="x[2] <= 4.5\ngini = 0.671\nsamples = 43\nvalue = [10, 20, 3, 10]"] ;
291 -> 292 ;
293 [label="x[0] <= 203.5\ngini = 0.625\nsamples = 28\nvalue = [4, 15, 2, 7]"] ;
292 -> 293 ;
294 [label="x[0] <= 194.5\ngini = 0.498\nsamples = 15\nvalue = [3, 10, 0, 2]"] ;
293 -> 294 ;
295 [label="x[0] <= 191.5\ngini = 0.571\nsamples = 7\nvalue = [1, 4, 0, 2]"] ;
294 -> 295 ;
296 [label="gini = 0.0\nsamples = 1\nvalue = [0, 1, 0, 0]"] ;
295 -> 296 ;
297 [label="x[1] <= 1.5\ngini = 0.611\nsamples = 6\nvalue = [1, 3, 0, 2]"] ;
295 -> 297 ;
298 [label="gini = 0.5\nsamples = 2\nvalue = [0, 1, 0, 1]"] ;
297 -> 298 ;
299 [label="gini = 0.625\nsamples = 4\nvalue = [1, 2, 0, 1]"] ;
297 -> 299 ;
300 [label="x[0] <= 201.5\ngini = 0.375\nsamples = 8\nvalue = [2, 6, 0, 0]"] ;
294 -> 300 ;
301 [label="x[0] <= 198.5\ngini = 0.278\nsamples = 6\nvalue = [1, 5, 0, 0]"] ;
300 -> 301 ;
302 [label="x[1] <= 1.5\ngini = 0.444\nsamples = 3\nvalue = [1, 2, 0, 0]"] ;
301 -> 302 ;
303 [label="gini = 0.0\nsamples = 1\nvalue = [1, 0, 0, 0]"] ;
302 -> 303 ;
304 [label="gini = 0.0\nsamples = 2\nvalue = [0, 2, 0, 0]"] ;
302 -> 304 ;
305 [label="gini = 0.0\nsamples = 3\nvalue = [0, 3, 0, 0]"] ;
301 -> 305 ;
306 [label="x[0] <= 202.5\ngini = 0.5\nsamples = 2\nvalue = [1, 1, 0, 0]"] ;
300 -> 306 ;
307 [label="gini = 0.0\nsamples = 1\nvalue = [1, 0, 0, 0]"] ;
306 -> 307 ;
308 [label="gini = 0.0\nsamples = 1\nvalue = [0, 1, 0, 0]"] ;
306 -> 308 ;
309 [label="x[0] <= 207.5\ngini = 0.675\nsamples = 13\nvalue = [1, 5, 2, 5]"] ;
293 -> 309 ;
310 [label="x[0] <= 206.5\ngini = 0.64\nsamples = 10\nvalue = [1, 3, 1, 5]"] ;
309 -> 310 ;
311 [label="x[1] <= 1.5\ngini = 0.5\nsamples = 6\nvalue = [0, 3, 0, 3]"] ;
310 -> 311 ;
312 [label="gini = 0.444\nsamples = 3\nvalue = [0, 1, 0, 2]"] ;
311 -> 312 ;
313 [label="x[0] <= 205.0\ngini = 0.444\nsamples = 3\nvalue = [0, 2, 0, 1]"] ;
311 -> 313 ;
314 [label="gini = 0.5\nsamples = 2\nvalue = [0, 1, 0, 1]"] ;
313 -> 314 ;
315 [label="gini = 0.0\nsamples = 1\nvalue = [0, 1, 0, 0]"] ;
313 -> 315 ;
316 [label="x[1] <= 1.5\ngini = 0.625\nsamples = 4\nvalue = [1, 0, 1, 2]"] ;
310 -> 316 ;
317 [label="gini = 0.5\nsamples = 2\nvalue = [1, 0, 0, 1]"] ;
316 -> 317 ;
318 [label="gini = 0.5\nsamples = 2\nvalue = [0, 0, 1, 1]"] ;
316 -> 318 ;
319 [label="x[0] <= 209.0\ngini = 0.444\nsamples = 3\nvalue = [0, 2, 1, 0]"] ;
309 -> 319 ;
320 [label="gini = 0.0\nsamples = 1\nvalue = [0, 1, 0, 0]"] ;
319 -> 320 ;
321 [label="x[0] <= 211.5\ngini = 0.5\nsamples = 2\nvalue = [0, 1, 1, 0]"] ;
319 -> 321 ;
322 [label="gini = 0.0\nsamples = 1\nvalue = [0, 0, 1, 0]"] ;
321 -> 322 ;
323 [label="gini = 0.0\nsamples = 1\nvalue = [0, 1, 0, 0]"] ;
321 -> 323 ;
324 [label="x[0] <= 199.5\ngini = 0.684\nsamples = 15\nvalue = [6, 5, 1, 3]"] ;
292 -> 324 ;
325 [label="x[0] <= 195.5\ngini = 0.375\nsamples = 4\nvalue = [0, 0, 1, 3]"] ;
324 -> 325 ;
326 [label="x[0] <= 191.5\ngini = 0.5\nsamples = 2\nvalue = [0, 0, 1, 1]"] ;
325 -> 326 ;
327 [label="gini = 0.0\nsamples = 1\nvalue = [0, 0, 0, 1]"] ;
326 -> 327 ;
328 [label="gini = 0.0\nsamples = 1\nvalue = [0, 0, 1, 0]"] ;
326 -> 328 ;
329 [label="gini = 0.0\nsamples = 2\nvalue = [0, 0, 0, 2]"] ;
325 -> 329 ;
330 [label="x[0] <= 204.5\ngini = 0.496\nsamples = 11\nvalue = [6, 5, 0, 0]"] ;
324 -> 330 ;
331 [label="gini = 0.0\nsamples = 2\nvalue = [2, 0, 0, 0]"] ;
330 -> 331 ;
332 [label="x[0] <= 205.5\ngini = 0.494\nsamples = 9\nvalue = [4, 5, 0, 0]"] ;
330 -> 332 ;
333 [label="gini = 0.0\nsamples = 3\nvalue = [0, 3, 0, 0]"] ;
332 -> 333 ;
334 [label="x[0] <= 208.5\ngini = 0.444\nsamples = 6\nvalue = [4, 2, 0, 0]"] ;
332 -> 334 ;
335 [label="gini = 0.0\nsamples = 2\nvalue = [2, 0, 0, 0]"] ;
334 -> 335 ;
336 [label="x[0] <= 211.5\ngini = 0.5\nsamples = 4\nvalue = [2, 2, 0, 0]"] ;
334 -> 336 ;
337 [label="gini = 0.5\nsamples = 2\nvalue = [1, 1, 0, 0]"] ;
336 -> 337 ;
338 [label="gini = 0.5\nsamples = 2\nvalue = [1, 1, 0, 0]"] ;
336 -> 338 ;
339 [label="x[0] <= 214.5\ngini = 0.656\nsamples = 8\nvalue = [2, 1, 1, 4]"] ;
291 -> 339 ;
340 [label="x[1] <= 1.5\ngini = 0.375\nsamples = 4\nvalue = [1, 0, 0, 3]"] ;
339 -> 340 ;
341 [label="gini = 0.0\nsamples = 2\nvalue = [0, 0, 0, 2]"] ;
340 -> 341 ;
342 [label="gini = 0.5\nsamples = 2\nvalue = [1, 0, 0, 1]"] ;
340 -> 342 ;
343 [label="x[0] <= 215.5\ngini = 0.75\nsamples = 4\nvalue = [1, 1, 1, 1]"] ;
339 -> 343 ;
344 [label="gini = 0.0\nsamples = 1\nvalue = [0, 0, 1, 0]"] ;
343 -> 344 ;
345 [label="x[1] <= 1.5\ngini = 0.667\nsamples = 3\nvalue = [1, 1, 0, 1]"] ;
343 -> 345 ;
346 [label="gini = 0.5\nsamples = 2\nvalue = [1, 1, 0, 0]"] ;
345 -> 346 ;
347 [label="gini = 0.0\nsamples = 1\nvalue = [0, 0, 0, 1]"] ;
345 -> 347 ;
348 [label="x[0] <= 219.5\ngini = 0.494\nsamples = 9\nvalue = [0, 6, 1, 2]"] ;
290 -> 348 ;
349 [label="x[0] <= 218.5\ngini = 0.449\nsamples = 7\nvalue = [0, 5, 1, 1]"] ;
348 -> 349 ;
350 [label="x[1] <= 1.5\ngini = 0.56\nsamples = 5\nvalue = [0, 3, 1, 1]"] ;
349 -> 350 ;
351 [label="gini = 0.0\nsamples = 1\nvalue = [0, 0, 1, 0]"] ;
350 -> 351 ;
352 [label="x[2] <= 4.5\ngini = 0.375\nsamples = 4\nvalue = [0, 3, 0, 1]"] ;
350 -> 352 ;
353 [label="gini = 0.0\nsamples = 1\nvalue = [0, 1, 0, 0]"] ;
352 -> 353 ;
354 [label="gini = 0.444\nsamples = 3\nvalue = [0, 2, 0, 1]"] ;
352 -> 354 ;
355 [label="gini = 0.0\nsamples = 2\nvalue = [0, 2, 0, 0]"] ;
349 -> 355 ;
356 [label="gini = 0.5\nsamples = 2\nvalue = [0, 1, 0, 1]"] ;
348 -> 356 ;
357 [label="x[1] <= 1.5\ngini = 0.444\nsamples = 6\nvalue = [4, 2, 0, 0]"] ;
5 -> 357 ;
358 [label="gini = 0.0\nsamples = 2\nvalue = [2, 0, 0, 0]"] ;
357 -> 358 ;
359 [label="x[0] <= 221.5\ngini = 0.5\nsamples = 4\nvalue = [2, 2, 0, 0]"] ;
357 -> 359 ;
360 [label="gini = 0.0\nsamples = 2\nvalue = [2, 0, 0, 0]"] ;
359 -> 360 ;
361 [label="gini = 0.0\nsamples = 2\nvalue = [0, 2, 0, 0]"] ;
359 -> 361 ;
362 [label="x[1] <= 1.5\ngini = 0.198\nsamples = 9\nvalue = [0, 8, 0, 1]"] ;
4 -> 362 ;
363 [label="x[2] <= 2.5\ngini = 0.5\nsamples = 2\nvalue = [0, 1, 0, 1]"] ;
362 -> 363 ;
364 [label="gini = 0.0\nsamples = 1\nvalue = [0, 1, 0, 0]"] ;
363 -> 364 ;
365 [label="gini = 0.0\nsamples = 1\nvalue = [0, 0, 0, 1]"] ;
363 -> 365 ;
366 [label="gini = 0.0\nsamples = 7\nvalue = [0, 7, 0, 0]"] ;
362 -> 366 ;
367 [label="x[0] <= 225.5\ngini = 0.706\nsamples = 177\nvalue = [31, 56, 22, 68]"] ;
3 -> 367 ;
368 [label="x[2] <= 3.5\ngini = 0.627\nsamples = 13\nvalue = [5, 1, 1, 6]"] ;
367 -> 368 ;
369 [label="x[1] <= 1.5\ngini = 0.72\nsamples = 5\nvalue = [1, 1, 1, 2]"] ;
368 -> 369 ;
370 [label="gini = 0.0\nsamples = 1\nvalue = [0, 1, 0, 0]"] ;
369 -> 370 ;
371 [label="x[2] <= 2.5\ngini = 0.625\nsamples = 4\nvalue = [1, 0, 1, 2]"] ;
369 -> 371 ;
372 [label="gini = 0.0\nsamples = 1\nvalue = [0, 0, 0, 1]"] ;
371 -> 372 ;
373 [label="gini = 0.667\nsamples = 3\nvalue = [1, 0, 1, 1]"] ;
371 -> 373 ;
374 [label="x[1] <= 1.5\ngini = 0.5\nsamples = 8\nvalue = [4, 0, 0, 4]"] ;
368 -> 374 ;
375 [label="x[0] <= 224.5\ngini = 0.49\nsamples = 7\nvalue = [3, 0, 0, 4]"] ;
374 -> 375 ;
376 [label="gini = 0.0\nsamples = 2\nvalue = [0, 0, 0, 2]"] ;
375 -> 376 ;
377 [label="x[2] <= 4.5\ngini = 0.48\nsamples = 5\nvalue = [3, 0, 0, 2]"] ;
375 -> 377 ;
378 [label="gini = 0.5\nsamples = 4\nvalue = [2, 0, 0, 2]"] ;
377 -> 378 ;
379 [label="gini = 0.0\nsamples = 1\nvalue = [1, 0, 0, 0]"] ;
377 -> 379 ;
380 [label="gini = 0.0\nsamples = 1\nvalue = [1, 0, 0, 0]"] ;
374 -> 380 ;
381 [label="x[2] <= 2.5\ngini = 0.703\nsamples = 164\nvalue = [26, 55, 21, 62]"] ;
367 -> 381 ;
382 [label="x[0] <= 276.5\ngini = 0.659\nsamples = 38\nvalue = [8, 10, 2, 18]"] ;
381 -> 382 ;
383 [label="x[2] <= 1.5\ngini = 0.654\nsamples = 37\nvalue = [8, 9, 2, 18]"] ;
382 -> 383 ;
384 [label="x[0] <= 263.0\ngini = 0.628\nsamples = 11\nvalue = [2, 5, 0, 4]"] ;
383 -> 384 ;
385 [label="x[0] <= 228.0\ngini = 0.593\nsamples = 9\nvalue = [2, 5, 0, 2]"] ;
384 -> 385 ;
386 [label="gini = 0.0\nsamples = 1\nvalue = [0, 0, 0, 1]"] ;
385 -> 386 ;
387 [label="x[0] <= 257.0\ngini = 0.531\nsamples = 8\nvalue = [2, 5, 0, 1]"] ;
385 -> 387 ;
388 [label="x[0] <= 237.0\ngini = 0.449\nsamples = 7\nvalue = [1, 5, 0, 1]"] ;
387 -> 388 ;
389 [label="gini = 0.0\nsamples = 3\nvalue = [0, 3, 0, 0]"] ;
388 -> 389 ;
390 [label="x[0] <= 239.5\ngini = 0.625\nsamples = 4\nvalue = [1, 2, 0, 1]"] ;
388 -> 390 ;
391 [label="gini = 0.0\nsamples = 1\nvalue = [1, 0, 0, 0]"] ;
390 -> 391 ;
392 [label="x[1] <= 1.5\ngini = 0.444\nsamples = 3\nvalue = [0, 2, 0, 1]"] ;
390 -> 392 ;
393 [label="x[0] <= 241.5\ngini = 0.5\nsamples = 2\nvalue = [0, 1, 0, 1]"] ;
392 -> 393 ;
394 [label="gini = 0.0\nsamples = 1\nvalue = [0, 1, 0, 0]"] ;
393 -> 394 ;
395 [label="gini = 0.0\nsamples = 1\nvalue = [0, 0, 0, 1]"] ;
393 -> 395 ;
396 [label="gini = 0.0\nsamples = 1\nvalue = [0, 1, 0, 0]"] ;
392 -> 396 ;
397 [label="gini = 0.0\nsamples = 1\nvalue = [1, 0, 0, 0]"] ;
387 -> 397 ;
398 [label="gini = 0.0\nsamples = 2\nvalue = [0, 0, 0, 2]"] ;
384 -> 398 ;
399 [label="x[0] <= 274.0\ngini = 0.627\nsamples = 26\nvalue = [6, 4, 2, 14]"] ;
383 -> 399 ;
400 [label="x[0] <= 231.5\ngini = 0.608\nsamples = 25\nvalue = [6, 3, 2, 14]"] ;
399 -> 400 ;
401 [label="x[0] <= 226.5\ngini = 0.64\nsamples = 5\nvalue = [1, 2, 0, 2]"] ;
400 -> 401 ;
402 [label="gini = 0.0\nsamples = 1\nvalue = [0, 0, 0, 1]"] ;
401 -> 402 ;
403 [label="x[0] <= 228.0\ngini = 0.625\nsamples = 4\nvalue = [1, 2, 0, 1]"] ;
401 -> 403 ;
404 [label="x[1] <= 1.5\ngini = 0.5\nsamples = 2\nvalue = [1, 1, 0, 0]"] ;
403 -> 404 ;
405 [label="gini = 0.0\nsamples = 1\nvalue = [0, 1, 0, 0]"] ;
404 -> 405 ;
406 [label="gini = 0.0\nsamples = 1\nvalue = [1, 0, 0, 0]"] ;
404 -> 406 ;
407 [label="x[0] <= 230.0\ngini = 0.5\nsamples = 2\nvalue = [0, 1, 0, 1]"] ;
403 -> 407 ;
408 [label="gini = 0.0\nsamples = 1\nvalue = [0, 0, 0, 1]"] ;
407 -> 408 ;
409 [label="gini = 0.0\nsamples = 1\nvalue = [0, 1, 0, 0]"] ;
407 -> 409 ;
410 [label="x[0] <= 250.0\ngini = 0.565\nsamples = 20\nvalue = [5, 1, 2, 12]"] ;
400 -> 410 ;
411 [label="x[1] <= 1.5\ngini = 0.426\nsamples = 13\nvalue = [4, 0, 0, 9]"] ;
410 -> 411 ;
412 [label="gini = 0.0\nsamples = 5\nvalue = [0, 0, 0, 5]"] ;
411 -> 412 ;
413 [label="x[0] <= 232.5\ngini = 0.5\nsamples = 8\nvalue = [4, 0, 0, 4]"] ;
411 -> 413 ;
414 [label="gini = 0.0\nsamples = 2\nvalue = [0, 0, 0, 2]"] ;
413 -> 414 ;
415 [label="x[0] <= 233.5\ngini = 0.444\nsamples = 6\nvalue = [4, 0, 0, 2]"] ;
413 -> 415 ;
416 [label="gini = 0.0\nsamples = 1\nvalue = [1, 0, 0, 0]"] ;
415 -> 416 ;
417 [label="x[0] <= 235.0\ngini = 0.48\nsamples = 5\nvalue = [3, 0, 0, 2]"] ;
415 -> 417 ;
418 [label="gini = 0.0\nsamples = 1\nvalue = [0, 0, 0, 1]"] ;
417 -> 418 ;
419 [label="x[0] <= 244.0\ngini = 0.375\nsamples = 4\nvalue = [3, 0, 0, 1]"] ;
417 -> 419 ;
420 [label="gini = 0.0\nsamples = 2\nvalue = [2, 0, 0, 0]"] ;
419 -> 420 ;
421 [label="gini = 0.5\nsamples = 2\nvalue = [1, 0, 0, 1]"] ;
419 -> 421 ;
422 [label="x[0] <= 269.5\ngini = 0.694\nsamples = 7\nvalue = [1, 1, 2, 3]"] ;
410 -> 422 ;
423 [label="x[1] <= 1.5\ngini = 0.72\nsamples = 5\nvalue = [1, 1, 2, 1]"] ;
422 -> 423 ;
424 [label="gini = 0.0\nsamples = 1\nvalue = [1, 0, 0, 0]"] ;
423 -> 424 ;
425 [label="x[0] <= 254.0\ngini = 0.625\nsamples = 4\nvalue = [0, 1, 2, 1]"] ;
423 -> 425 ;
426 [label="gini = 0.0\nsamples = 1\nvalue = [0, 0, 1, 0]"] ;
425 -> 426 ;
427 [label="x[0] <= 262.5\ngini = 0.667\nsamples = 3\nvalue = [0, 1, 1, 1]"] ;
425 -> 427 ;
428 [label="gini = 0.5\nsamples = 2\nvalue = [0, 1, 0, 1]"] ;
427 -> 428 ;
429 [label="gini = 0.0\nsamples = 1\nvalue = [0, 0, 1, 0]"] ;
427 -> 429 ;
430 [label="gini = 0.0\nsamples = 2\nvalue = [0, 0, 0, 2]"] ;
422 -> 430 ;
431 [label="gini = 0.0\nsamples = 1\nvalue = [0, 1, 0, 0]"] ;
399 -> 431 ;
432 [label="gini = 0.0\nsamples = 1\nvalue = [0, 1, 0, 0]"] ;
382 -> 432 ;
433 [label="x[2] <= 4.5\ngini = 0.707\nsamples = 126\nvalue = [18, 45, 19, 44]"] ;
381 -> 433 ;
434 [label="x[1] <= 1.5\ngini = 0.726\nsamples = 95\nvalue = [17, 32, 16, 30]"] ;
433 -> 434 ;
435 [label="x[0] <= 245.0\ngini = 0.719\nsamples = 41\nvalue = [6, 9, 10, 16]"] ;
434 -> 435 ;
436 [label="x[0] <= 235.0\ngini = 0.625\nsamples = 20\nvalue = [2, 3, 4, 11]"] ;
435 -> 436 ;
437 [label="x[0] <= 229.5\ngini = 0.622\nsamples = 15\nvalue = [2, 1, 4, 8]"] ;
436 -> 437 ;
438 [label="x[2] <= 3.5\ngini = 0.667\nsamples = 3\nvalue = [1, 1, 0, 1]"] ;
437 -> 438 ;
439 [label="gini = 0.0\nsamples = 1\nvalue = [0, 1, 0, 0]"] ;
438 -> 439 ;
440 [label="gini = 0.5\nsamples = 2\nvalue = [1, 0, 0, 1]"] ;
438 -> 440 ;
441 [label="x[0] <= 231.5\ngini = 0.542\nsamples = 12\nvalue = [1, 0, 4, 7]"] ;
437 -> 441 ;
442 [label="x[0] <= 230.5\ngini = 0.444\nsamples = 3\nvalue = [0, 0, 2, 1]"] ;
441 -> 442 ;
443 [label="gini = 0.0\nsamples = 1\nvalue = [0, 0, 0, 1]"] ;
442 -> 443 ;
444 [label="gini = 0.0\nsamples = 2\nvalue = [0, 0, 2, 0]"] ;
442 -> 444 ;
445 [label="x[0] <= 233.5\ngini = 0.494\nsamples = 9\nvalue = [1, 0, 2, 6]"] ;
441 -> 445 ;
446 [label="x[2] <= 3.5\ngini = 0.32\nsamples = 5\nvalue = [0, 0, 1, 4]"] ;
445 -> 446 ;
447 [label="gini = 0.0\nsamples = 4\nvalue = [0, 0, 0, 4]"] ;
446 -> 447 ;
448 [label="gini = 0.0\nsamples = 1\nvalue = [0, 0, 1, 0]"] ;
446 -> 448 ;
449 [label="x[2] <= 3.5\ngini = 0.625\nsamples = 4\nvalue = [1, 0, 1, 2]"] ;
445 -> 449 ;
450 [label="gini = 0.667\nsamples = 3\nvalue = [1, 0, 1, 1]"] ;
449 -> 450 ;
451 [label="gini = 0.0\nsamples = 1\nvalue = [0, 0, 0, 1]"] ;
449 -> 451 ;
452 [label="x[0] <= 238.5\ngini = 0.48\nsamples = 5\nvalue = [0, 2, 0, 3]"] ;
436 -> 452 ;
453 [label="gini = 0.0\nsamples = 1\nvalue = [0, 1, 0, 0]"] ;
452 -> 453 ;
454 [label="x[2] <= 3.5\ngini = 0.375\nsamples = 4\nvalue = [0, 1, 0, 3]"] ;
452 -> 454 ;
455 [label="x[0] <= 242.5\ngini = 0.444\nsamples = 3\nvalue = [0, 1, 0, 2]"] ;
454 -> 455 ;
456 [label="gini = 0.5\nsamples = 2\nvalue = [0, 1, 0, 1]"] ;
455 -> 456 ;
457 [label="gini = 0.0\nsamples = 1\nvalue = [0, 0, 0, 1]"] ;
455 -> 457 ;
458 [label="gini = 0.0\nsamples = 1\nvalue = [0, 0, 0, 1]"] ;
454 -> 458 ;
459 [label="x[0] <= 253.5\ngini = 0.744\nsamples = 21\nvalue = [4, 6, 6, 5]"] ;
435 -> 459 ;
460 [label="x[0] <= 246.5\ngini = 0.667\nsamples = 9\nvalue = [3, 4, 1, 1]"] ;
459 -> 460 ;
461 [label="gini = 0.0\nsamples = 1\nvalue = [0, 0, 1, 0]"] ;
460 -> 461 ;
462 [label="x[0] <= 251.5\ngini = 0.594\nsamples = 8\nvalue = [3, 4, 0, 1]"] ;
460 -> 462 ;
463 [label="x[2] <= 3.5\ngini = 0.48\nsamples = 5\nvalue = [3, 2, 0, 0]"] ;
462 -> 463 ;
464 [label="gini = 0.0\nsamples = 2\nvalue = [2, 0, 0, 0]"] ;
463 -> 464 ;
465 [label="x[0] <= 248.0\ngini = 0.444\nsamples = 3\nvalue = [1, 2, 0, 0]"] ;
463 -> 465 ;
466 [label="gini = 0.0\nsamples = 1\nvalue = [0, 1, 0, 0]"] ;
465 -> 466 ;
467 [label="x[0] <= 250.0\ngini = 0.5\nsamples = 2\nvalue = [1, 1, 0, 0]"] ;
465 -> 467 ;
468 [label="gini = 0.0\nsamples = 1\nvalue = [1, 0, 0, 0]"] ;
467 -> 468 ;
469 [label="gini = 0.0\nsamples = 1\nvalue = [0, 1, 0, 0]"] ;
467 -> 469 ;
470 [label="x[2] <= 3.5\ngini = 0.444\nsamples = 3\nvalue = [0, 2, 0, 1]"] ;
462 -> 470 ;
471 [label="gini = 0.0\nsamples = 1\nvalue = [0, 1, 0, 0]"] ;
470 -> 471 ;
472 [label="gini = 0.5\nsamples = 2\nvalue = [0, 1, 0, 1]"] ;
470 -> 472 ;
473 [label="x[0] <= 265.0\ngini = 0.681\nsamples = 12\nvalue = [1, 2, 5, 4]"] ;
459 -> 473 ;
474 [label="x[0] <= 257.0\ngini = 0.469\nsamples = 8\nvalue = [0, 0, 5, 3]"] ;
473 -> 474 ;
475 [label="x[2] <= 3.5\ngini = 0.444\nsamples = 3\nvalue = [0, 0, 1, 2]"] ;
474 -> 475 ;
476 [label="gini = 0.0\nsamples = 1\nvalue = [0, 0, 0, 1]"] ;
475 -> 476 ;
477 [label="x[0] <= 255.5\ngini = 0.5\nsamples = 2\nvalue = [0, 0, 1, 1]"] ;
475 -> 477 ;
478 [label="gini = 0.0\nsamples = 1\nvalue = [0, 0, 1, 0]"] ;
477 -> 478 ;
479 [label="gini = 0.0\nsamples = 1\nvalue = [0, 0, 0, 1]"] ;
477 -> 479 ;
480 [label="x[0] <= 261.5\ngini = 0.32\nsamples = 5\nvalue = [0, 0, 4, 1]"] ;
474 -> 480 ;
481 [label="gini = 0.0\nsamples = 3\nvalue = [0, 0, 3, 0]"] ;
480 -> 481 ;
482 [label="x[0] <= 262.5\ngini = 0.5\nsamples = 2\nvalue = [0, 0, 1, 1]"] ;
480 -> 482 ;
483 [label="gini = 0.0\nsamples = 1\nvalue = [0, 0, 0, 1]"] ;
482 -> 483 ;
484 [label="gini = 0.0\nsamples = 1\nvalue = [0, 0, 1, 0]"] ;
482 -> 484 ;
485 [label="x[0] <= 274.5\ngini = 0.625\nsamples = 4\nvalue = [1, 2, 0, 1]"] ;
473 -> 485 ;
486 [label="gini = 0.0\nsamples = 2\nvalue = [0, 2, 0, 0]"] ;
485 -> 486 ;
487 [label="x[0] <= 276.5\ngini = 0.5\nsamples = 2\nvalue = [1, 0, 0, 1]"] ;
485 -> 487 ;
488 [label="gini = 0.0\nsamples = 1\nvalue = [0, 0, 0, 1]"] ;
487 -> 488 ;
489 [label="gini = 0.0\nsamples = 1\nvalue = [1, 0, 0, 0]"] ;
487 -> 489 ;
490 [label="x[0] <= 269.0\ngini = 0.698\nsamples = 54\nvalue = [11, 23, 6, 14]"] ;
434 -> 490 ;
491 [label="x[0] <= 256.5\ngini = 0.714\nsamples = 49\nvalue = [11, 19, 6, 13]"] ;
490 -> 491 ;
492 [label="x[0] <= 253.5\ngini = 0.671\nsamples = 37\nvalue = [5, 17, 4, 11]"] ;
491 -> 492 ;
493 [label="x[0] <= 250.5\ngini = 0.69\nsamples = 34\nvalue = [5, 14, 4, 11]"] ;
492 -> 493 ;
494 [label="x[0] <= 239.5\ngini = 0.676\nsamples = 30\nvalue = [4, 14, 4, 8]"] ;
493 -> 494 ;
495 [label="x[0] <= 238.5\ngini = 0.692\nsamples = 23\nvalue = [3, 9, 3, 8]"] ;
494 -> 495 ;
496 [label="x[0] <= 236.5\ngini = 0.674\nsamples = 22\nvalue = [2, 9, 3, 8]"] ;
495 -> 496 ;
497 [label="x[0] <= 233.5\ngini = 0.664\nsamples = 17\nvalue = [2, 8, 2, 5]"] ;
496 -> 497 ;
498 [label="x[0] <= 229.5\ngini = 0.681\nsamples = 12\nvalue = [2, 4, 1, 5]"] ;
497 -> 498 ;
499 [label="x[2] <= 3.5\ngini = 0.571\nsamples = 7\nvalue = [0, 4, 1, 2]"] ;
498 -> 499 ;
500 [label="gini = 0.5\nsamples = 2\nvalue = [0, 1, 1, 0]"] ;
499 -> 500 ;
501 [label="x[0] <= 226.5\ngini = 0.48\nsamples = 5\nvalue = [0, 3, 0, 2]"] ;
499 -> 501 ;
502 [label="gini = 0.0\nsamples = 1\nvalue = [0, 1, 0, 0]"] ;
501 -> 502 ;
503 [label="x[0] <= 227.5\ngini = 0.5\nsamples = 4\nvalue = [0, 2, 0, 2]"] ;
501 -> 503 ;
504 [label="gini = 0.0\nsamples = 1\nvalue = [0, 0, 0, 1]"] ;
503 -> 504 ;
505 [label="x[0] <= 228.5\ngini = 0.444\nsamples = 3\nvalue = [0, 2, 0, 1]"] ;
503 -> 505 ;
506 [label="gini = 0.5\nsamples = 2\nvalue = [0, 1, 0, 1]"] ;
505 -> 506 ;
507 [label="gini = 0.0\nsamples = 1\nvalue = [0, 1, 0, 0]"] ;
505 -> 507 ;
508 [label="x[0] <= 231.0\ngini = 0.48\nsamples = 5\nvalue = [2, 0, 0, 3]"] ;
498 -> 508 ;
509 [label="gini = 0.0\nsamples = 1\nvalue = [1, 0, 0, 0]"] ;
508 -> 509 ;
510 [label="x[0] <= 232.5\ngini = 0.375\nsamples = 4\nvalue = [1, 0, 0, 3]"] ;
508 -> 510 ;
511 [label="gini = 0.444\nsamples = 3\nvalue = [1, 0, 0, 2]"] ;
510 -> 511 ;
512 [label="gini = 0.0\nsamples = 1\nvalue = [0, 0, 0, 1]"] ;
510 -> 512 ;
513 [label="x[2] <= 3.5\ngini = 0.32\nsamples = 5\nvalue = [0, 4, 1, 0]"] ;
497 -> 513 ;
514 [label="gini = 0.0\nsamples = 2\nvalue = [0, 2, 0, 0]"] ;
513 -> 514 ;
515 [label="x[0] <= 235.5\ngini = 0.444\nsamples = 3\nvalue = [0, 2, 1, 0]"] ;
513 -> 515 ;
516 [label="gini = 0.5\nsamples = 2\nvalue = [0, 1, 1, 0]"] ;
515 -> 516 ;
517 [label="gini = 0.0\nsamples = 1\nvalue = [0, 1, 0, 0]"] ;
515 -> 517 ;
518 [label="x[2] <= 3.5\ngini = 0.56\nsamples = 5\nvalue = [0, 1, 1, 3]"] ;
496 -> 518 ;
519 [label="x[0] <= 237.5\ngini = 0.444\nsamples = 3\nvalue = [0, 0, 1, 2]"] ;
518 -> 519 ;
520 [label="gini = 0.0\nsamples = 2\nvalue = [0, 0, 0, 2]"] ;
519 -> 520 ;
521 [label="gini = 0.0\nsamples = 1\nvalue = [0, 0, 1, 0]"] ;
519 -> 521 ;
522 [label="x[0] <= 237.5\ngini = 0.5\nsamples = 2\nvalue = [0, 1, 0, 1]"] ;
518 -> 522 ;
523 [label="gini = 0.0\nsamples = 1\nvalue = [0, 1, 0, 0]"] ;
522 -> 523 ;
524 [label="gini = 0.0\nsamples = 1\nvalue = [0, 0, 0, 1]"] ;
522 -> 524 ;
525 [label="gini = 0.0\nsamples = 1\nvalue = [1, 0, 0, 0]"] ;
495 -> 525 ;
526 [label="x[0] <= 249.5\ngini = 0.449\nsamples = 7\nvalue = [1, 5, 1, 0]"] ;
494 -> 526 ;
527 [label="x[0] <= 248.0\ngini = 0.278\nsamples = 6\nvalue = [1, 5, 0, 0]"] ;
526 -> 527 ;
528 [label="gini = 0.0\nsamples = 4\nvalue = [0, 4, 0, 0]"] ;
527 -> 528 ;
529 [label="x[2] <= 3.5\ngini = 0.5\nsamples = 2\nvalue = [1, 1, 0, 0]"] ;
527 -> 529 ;
530 [label="gini = 0.0\nsamples = 1\nvalue = [1, 0, 0, 0]"] ;
529 -> 530 ;
531 [label="gini = 0.0\nsamples = 1\nvalue = [0, 1, 0, 0]"] ;
529 -> 531 ;
532 [label="gini = 0.0\nsamples = 1\nvalue = [0, 0, 1, 0]"] ;
526 -> 532 ;
533 [label="x[2] <= 3.5\ngini = 0.375\nsamples = 4\nvalue = [1, 0, 0, 3]"] ;
493 -> 533 ;
534 [label="x[0] <= 251.5\ngini = 0.5\nsamples = 2\nvalue = [1, 0, 0, 1]"] ;
533 -> 534 ;
535 [label="gini = 0.0\nsamples = 1\nvalue = [0, 0, 0, 1]"] ;
534 -> 535 ;
536 [label="gini = 0.0\nsamples = 1\nvalue = [1, 0, 0, 0]"] ;
534 -> 536 ;
537 [label="gini = 0.0\nsamples = 2\nvalue = [0, 0, 0, 2]"] ;
533 -> 537 ;
538 [label="gini = 0.0\nsamples = 3\nvalue = [0, 3, 0, 0]"] ;
492 -> 538 ;
539 [label="x[0] <= 265.5\ngini = 0.667\nsamples = 12\nvalue = [6, 2, 2, 2]"] ;
491 -> 539 ;
540 [label="x[0] <= 257.5\ngini = 0.593\nsamples = 9\nvalue = [5, 2, 2, 0]"] ;
539 -> 540 ;
541 [label="gini = 0.0\nsamples = 1\nvalue = [1, 0, 0, 0]"] ;
540 -> 541 ;
542 [label="x[0] <= 258.5\ngini = 0.625\nsamples = 8\nvalue = [4, 2, 2, 0]"] ;
540 -> 542 ;
543 [label="gini = 0.0\nsamples = 1\nvalue = [0, 1, 0, 0]"] ;
542 -> 543 ;
544 [label="x[0] <= 261.5\ngini = 0.571\nsamples = 7\nvalue = [4, 1, 2, 0]"] ;
542 -> 544 ;
545 [label="x[0] <= 259.5\ngini = 0.375\nsamples = 4\nvalue = [3, 0, 1, 0]"] ;
544 -> 545 ;
546 [label="gini = 0.5\nsamples = 2\nvalue = [1, 0, 1, 0]"] ;
545 -> 546 ;
547 [label="gini = 0.0\nsamples = 2\nvalue = [2, 0, 0, 0]"] ;
545 -> 547 ;
548 [label="x[2] <= 3.5\ngini = 0.667\nsamples = 3\nvalue = [1, 1, 1, 0]"] ;
544 -> 548 ;
549 [label="x[0] <= 263.5\ngini = 0.5\nsamples = 2\nvalue = [1, 1, 0, 0]"] ;
548 -> 549 ;
550 [label="gini = 0.0\nsamples = 1\nvalue = [0, 1, 0, 0]"] ;
549 -> 550 ;
551 [label="gini = 0.0\nsamples = 1\nvalue = [1, 0, 0, 0]"] ;
549 -> 551 ;
552 [label="gini = 0.0\nsamples = 1\nvalue = [0, 0, 1, 0]"] ;
548 -> 552 ;
553 [label="x[0] <= 267.0\ngini = 0.444\nsamples = 3\nvalue = [1, 0, 0, 2]"] ;
539 -> 553 ;
554 [label="x[2] <= 3.5\ngini = 0.5\nsamples = 2\nvalue = [1, 0, 0, 1]"] ;
553 -> 554 ;
555 [label="gini = 0.0\nsamples = 1\nvalue = [1, 0, 0, 0]"] ;
554 -> 555 ;
556 [label="gini = 0.0\nsamples = 1\nvalue = [0, 0, 0, 1]"] ;
554 -> 556 ;
557 [label="gini = 0.0\nsamples = 1\nvalue = [0, 0, 0, 1]"] ;
553 -> 557 ;
558 [label="x[2] <= 3.5\ngini = 0.32\nsamples = 5\nvalue = [0, 4, 0, 1]"] ;
490 -> 558 ;
559 [label="gini = 0.0\nsamples = 3\nvalue = [0, 3, 0, 0]"] ;
558 -> 559 ;
560 [label="gini = 0.5\nsamples = 2\nvalue = [0, 1, 0, 1]"] ;
558 -> 560 ;
561 [label="x[0] <= 236.5\ngini = 0.61\nsamples = 31\nvalue = [1, 13, 3, 14]"] ;
433 -> 561 ;
562 [label="x[1] <= 1.5\ngini = 0.219\nsamples = 8\nvalue = [0, 7, 0, 1]"] ;
561 -> 562 ;
563 [label="gini = 0.0\nsamples = 6\nvalue = [0, 6, 0, 0]"] ;
562 -> 563 ;
564 [label="x[0] <= 234.5\ngini = 0.5\nsamples = 2\nvalue = [0, 1, 0, 1]"] ;
562 -> 564 ;
565 [label="gini = 0.0\nsamples = 1\nvalue = [0, 1, 0, 0]"] ;
564 -> 565 ;
566 [label="gini = 0.0\nsamples = 1\nvalue = [0, 0, 0, 1]"] ;
564 -> 566 ;
567 [label="x[0] <= 244.5\ngini = 0.594\nsamples = 23\nvalue = [1, 6, 3, 13]"] ;
561 -> 567 ;
568 [label="gini = 0.0\nsamples = 4\nvalue = [0, 0, 0, 4]"] ;
567 -> 568 ;
569 [label="x[0] <= 250.5\ngini = 0.648\nsamples = 19\nvalue = [1, 6, 3, 9]"] ;
567 -> 569 ;
570 [label="x[0] <= 245.5\ngini = 0.444\nsamples = 3\nvalue = [1, 2, 0, 0]"] ;
569 -> 570 ;
571 [label="gini = 0.0\nsamples = 1\nvalue = [0, 1, 0, 0]"] ;
570 -> 571 ;
572 [label="x[0] <= 247.0\ngini = 0.5\nsamples = 2\nvalue = [1, 1, 0, 0]"] ;
570 -> 572 ;
573 [label="gini = 0.0\nsamples = 1\nvalue = [1, 0, 0, 0]"] ;
572 -> 573 ;
574 [label="gini = 0.0\nsamples = 1\nvalue = [0, 1, 0, 0]"] ;
572 -> 574 ;
575 [label="x[0] <= 260.0\ngini = 0.586\nsamples = 16\nvalue = [0, 4, 3, 9]"] ;
569 -> 575 ;
576 [label="x[0] <= 253.5\ngini = 0.444\nsamples = 3\nvalue = [0, 0, 2, 1]"] ;
575 -> 576 ;
577 [label="gini = 0.0\nsamples = 1\nvalue = [0, 0, 0, 1]"] ;
576 -> 577 ;
578 [label="gini = 0.0\nsamples = 2\nvalue = [0, 0, 2, 0]"] ;
576 -> 578 ;
579 [label="x[0] <= 269.0\ngini = 0.521\nsamples = 13\nvalue = [0, 4, 1, 8]"] ;
575 -> 579 ;
580 [label="x[0] <= 263.0\ngini = 0.58\nsamples = 10\nvalue = [0, 4, 1, 5]"] ;
579 -> 580 ;
581 [label="x[0] <= 261.5\ngini = 0.32\nsamples = 5\nvalue = [0, 1, 0, 4]"] ;
580 -> 581 ;
582 [label="gini = 0.0\nsamples = 2\nvalue = [0, 0, 0, 2]"] ;
581 -> 582 ;
583 [label="x[1] <= 1.5\ngini = 0.444\nsamples = 3\nvalue = [0, 1, 0, 2]"] ;
581 -> 583 ;
584 [label="gini = 0.0\nsamples = 1\nvalue = [0, 0, 0, 1]"] ;
583 -> 584 ;
585 [label="gini = 0.5\nsamples = 2\nvalue = [0, 1, 0, 1]"] ;
583 -> 585 ;
586 [label="x[1] <= 1.5\ngini = 0.56\nsamples = 5\nvalue = [0, 3, 1, 1]"] ;
580 -> 586 ;
587 [label="x[0] <= 266.5\ngini = 0.375\nsamples = 4\nvalue = [0, 3, 0, 1]"] ;
586 -> 587 ;
588 [label="gini = 0.0\nsamples = 2\nvalue = [0, 2, 0, 0]"] ;
587 -> 588 ;
589 [label="gini = 0.5\nsamples = 2\nvalue = [0, 1, 0, 1]"] ;
587 -> 589 ;
590 [label="gini = 0.0\nsamples = 1\nvalue = [0, 0, 1, 0]"] ;
586 -> 590 ;
591 [label="gini = 0.0\nsamples = 3\nvalue = [0, 0, 0, 3]"] ;
579 -> 591 ;
592 [label="x[0] <= 288.5\ngini = 0.715\nsamples = 20\nvalue = [7, 2, 5, 6]"] ;
0 -> 592 [labeldistance=2.5, labelangle=-45, headlabel="False"] ;
593 [label="x[2] <= 2.0\ngini = 0.688\nsamples = 8\nvalue = [1, 1, 3, 3]"] ;
592 -> 593 ;
594 [label="x[0] <= 280.5\ngini = 0.5\nsamples = 2\nvalue = [1, 1, 0, 0]"] ;
593 -> 594 ;
595 [label="gini = 0.0\nsamples = 1\nvalue = [1, 0, 0, 0]"] ;
594 -> 595 ;
596 [label="gini = 0.0\nsamples = 1\nvalue = [0, 1, 0, 0]"] ;
594 -> 596 ;
597 [label="x[2] <= 3.5\ngini = 0.5\nsamples = 6\nvalue = [0, 0, 3, 3]"] ;
593 -> 597 ;
598 [label="gini = 0.0\nsamples = 2\nvalue = [0, 0, 0, 2]"] ;
597 -> 598 ;
599 [label="x[0] <= 287.5\ngini = 0.375\nsamples = 4\nvalue = [0, 0, 3, 1]"] ;
597 -> 599 ;
600 [label="gini = 0.0\nsamples = 3\nvalue = [0, 0, 3, 0]"] ;
599 -> 600 ;
601 [label="gini = 0.0\nsamples = 1\nvalue = [0, 0, 0, 1]"] ;
599 -> 601 ;
602 [label="x[1] <= 1.5\ngini = 0.653\nsamples = 12\nvalue = [6, 1, 2, 3]"] ;
592 -> 602 ;
603 [label="gini = 0.0\nsamples = 1\nvalue = [0, 0, 0, 1]"] ;
602 -> 603 ;
604 [label="x[0] <= 296.5\ngini = 0.628\nsamples = 11\nvalue = [6, 1, 2, 2]"] ;
602 -> 604 ;
605 [label="x[0] <= 291.5\ngini = 0.531\nsamples = 8\nvalue = [5, 0, 2, 1]"] ;
604 -> 605 ;
606 [label="x[0] <= 290.0\ngini = 0.444\nsamples = 3\nvalue = [2, 0, 0, 1]"] ;
605 -> 606 ;
607 [label="gini = 0.0\nsamples = 1\nvalue = [1, 0, 0, 0]"] ;
606 -> 607 ;
608 [label="gini = 0.5\nsamples = 2\nvalue = [1, 0, 0, 1]"] ;
606 -> 608 ;
609 [label="x[2] <= 3.5\ngini = 0.48\nsamples = 5\nvalue = [3, 0, 2, 0]"] ;
605 -> 609 ;
610 [label="gini = 0.0\nsamples = 1\nvalue = [1, 0, 0, 0]"] ;
609 -> 610 ;
611 [label="x[0] <= 292.5\ngini = 0.5\nsamples = 4\nvalue = [2, 0, 2, 0]"] ;
609 -> 611 ;
612 [label="x[2] <= 4.5\ngini = 0.5\nsamples = 2\nvalue = [1, 0, 1, 0]"] ;
611 -> 612 ;
613 [label="gini = 0.0\nsamples = 1\nvalue = [0, 0, 1, 0]"] ;
612 -> 613 ;
614 [label="gini = 0.0\nsamples = 1\nvalue = [1, 0, 0, 0]"] ;
612 -> 614 ;
615 [label="x[2] <= 4.5\ngini = 0.5\nsamples = 2\nvalue = [1, 0, 1, 0]"] ;
611 -> 615 ;
616 [label="gini = 0.0\nsamples = 1\nvalue = [1, 0, 0, 0]"] ;
615 -> 616 ;
617 [label="gini = 0.0\nsamples = 1\nvalue = [0, 0, 1, 0]"] ;
615 -> 617 ;
618 [label="x[0] <= 298.5\ngini = 0.667\nsamples = 3\nvalue = [1, 1, 0, 1]"] ;
604 -> 618 ;
619 [label="gini = 0.0\nsamples = 1\nvalue = [0, 1, 0, 0]"] ;
618 -> 619 ;
620 [label="gini = 0.5\nsamples = 2\nvalue = [1, 0, 0, 1]"] ;
618 -> 620 ;
}