digraph Tree {
node [shape=box, fontname="helvetica"] ;
edge [fontname="helvetica"] ;
0 [label="x[0] <= 278.5\ngini = 0.704\nsamples = 500\nvalue = [95, 182, 52, 171]"] ;
1 [label="x[0] <= 94.5\ngini = 0.698\nsamples = 480\nvalue = [88, 180, 47, 165]"] ;
0 -> 1 [labeldistance=2.5, labelangle=45, headlabel="True"] ;
2 [label="gini = 0.0\nsamples = 4\nvalue = [0, 4, 0, 0]"] ;
1 -> 2 ;
3 [label="x[0] <= 223.5\ngini = 0.699\nsamples = 476\nvalue = [88, 176, 47, 165]"] ;
1 -> 3 ;
4 [label="x[0] <= 222.5\ngini = 0.69\nsamples = 299\nvalue = [57, 120, 25, 97]"] ;
3 -> 4 ;
5 [label="x[0] <= 220.5\ngini = 0.695\nsamples = 290\nvalue = [57, 112, 25, 96]"] ;
4 -> 5 ;
6 [label="x[0] <= 174.0\ngini = 0.693\nsamples = 284\nvalue = [53, 110, 25, 96]"] ;
5 -> 6 ;
7 [label="x[0] <= 172.5\ngini = 0.682\nsamples = 89\nvalue = [16, 29, 7, 37]"] ;
6 -> 7 ;
8 [label="x[0] <= 165.0\ngini = 0.689\nsamples = 86\nvalue = [16, 29, 7, 34]"] ;
7 -> 8 ;
9 [label="x[0] <= 153.5\ngini = 0.678\nsamples = 71\nvalue = [10, 24, 7, 30]"] ;
8 -> 9 ;
10 [label="x[0] <= 150.5\ngini = 0.678\nsamples = 45\nvalue = [8, 18, 3, 16]"] ;
9 -> 10 ;
11 [label="x[2] <= 3.5\ngini = 0.652\nsamples = 32\nvalue = [7, 9, 1, 15]"] ;
10 -> 11 ;
12 [label="x[0] <= 132.5\ngini = 0.639\nsamples = 23\nvalue = [3, 9, 1, 10]"] ;
11 -> 12 ;
13 [label="x[2] <= 2.5\ngini = 0.278\nsamples = 6\nvalue = [0, 5, 0, 1]"] ;
12 -> 13 ;
14 [label="x[0] <= 122.5\ngini = 0.444\nsamples = 3\nvalue = [0, 2, 0, 1]"] ;
13 -> 14 ;
15 [label="gini = 0.0\nsamples = 1\nvalue = [0, 1, 0, 0]"] ;
14 -> 15 ;
16 [label="x[0] <= 127.0\ngini = 0.5\nsamples = 2\nvalue = [0, 1, 0, 1]"] ;
14 -> 16 ;
17 [label="gini = 0.0\nsamples = 1\nvalue = [0, 0, 0, 1]"] ;
16 -> 17 ;
18 [label="gini = 0.0\nsamples = 1\nvalue = [0, 1, 0, 0]"] ;
16 -> 18 ;
19 [label="gini = 0.0\nsamples = 3\nvalue = [0, 3, 0, 0]"] ;
13 -> 19 ;
20 [label="x[2] <= 2.5\ngini = 0.63\nsamples = 17\nvalue = [3, 4, 1, 9]"] ;
12 -> 20 ;
21 [label="x[0] <= 139.5\ngini = 0.37\nsamples = 9\nvalue = [1, 1, 0, 7]"] ;
20 -> 21 ;
22 [label="x[0] <= 138.5\ngini = 0.444\nsamples = 3\nvalue = [0, 1, 0, 2]"] ;
21 -> 22 ;
23 [label="gini = 0.0\nsamples = 2\nvalue = [0, 0, 0, 2]"] ;
22 -> 23 ;
24 [label="gini = 0.0\nsamples = 1\nvalue = [0, 1, 0, 0]"] ;
22 -> 24 ;
25 [label="x[2] <= 1.5\ngini = 0.278\nsamples = 6\nvalue = [1, 0, 0, 5]"] ;
21 -> 25 ;
26 [label="gini = 0.0\nsamples = 4\nvalue = [0, 0, 0, 4]"] ;
25 -> 26 ;
27 [label="x[0] <= 144.5\ngini = 0.5\nsamples = 2\nvalue = [1, 0, 0, 1]"] ;
25 -> 27 ;
28 [label="gini = 0.0\nsamples = 1\nvalue = [0, 0, 0, 1]"] ;
27 -> 28 ;
29 [label="gini = 0.0\nsamples = 1\nvalue = [1, 0, 0, 0]"] ;
27 -> 29 ;
30 [label="x[0] <= 136.0\ngini = 0.719\nsamples = 8\nvalue = [2, 3, 1, 2]"] ;
20 -> 30 ;
31 [label="gini = 0.0\nsamples = 1\nvalue = [0, 0, 1, 0]"] ;
30 -> 31 ;
32 [label="x[0] <= 138.5\ngini = 0.653\nsamples = 7\nvalue = [2, 3, 0, 2]"] ;
30 -> 32 ;
33 [label="gini = 0.0\nsamples = 1\nvalue = [0, 0, 0, 1]"] ;
32 -> 33 ;
34 [label="x[0] <= 149.5\ngini = 0.611\nsamples = 6\nvalue = [2, 3, 0, 1]"] ;
32 -> 34 ;
35 [label="x[1] <= 1.5\ngini = 0.48\nsamples = 5\nvalue = [2, 3, 0, 0]"] ;
34 -> 35 ;
36 [label="x[0] <= 141.0\ngini = 0.375\nsamples = 4\nvalue = [1, 3, 0, 0]"] ;
35 -> 36 ;
37 [label="x[0] <= 139.5\ngini = 0.5\nsamples = 2\nvalue = [1, 1, 0, 0]"] ;
36 -> 37 ;
38 [label="gini = 0.0\nsamples = 1\nvalue = [0, 1, 0, 0]"] ;
37 -> 38 ;
39 [label="gini = 0.0\nsamples = 1\nvalue = [1, 0, 0, 0]"] ;
37 -> 39 ;
40 [label="gini = 0.0\nsamples = 2\nvalue = [0, 2, 0, 0]"] ;
36 -> 40 ;
41 [label="gini = 0.0\nsamples = 1\nvalue = [1, 0, 0, 0]"] ;
35 -> 41 ;
42 [label="gini = 0.0\nsamples = 1\nvalue = [0, 0, 0, 1]"] ;
34 -> 42 ;
43 [label="x[2] <= 4.5\ngini = 0.494\nsamples = 9\nvalue = [4, 0, 0, 5]"] ;
11 -> 43 ;
44 [label="x[0] <= 106.0\ngini = 0.444\nsamples = 6\nvalue = [4, 0, 0, 2]"] ;
43 -> 44 ;
45 [label="gini = 0.0\nsamples = 1\nvalue = [0, 0, 0, 1]"] ;
44 -> 45 ;
46 [label="x[0] <= 127.0\ngini = 0.32\nsamples = 5\nvalue = [4, 0, 0, 1]"] ;
44 -> 46 ;
47 [label="gini = 0.0\nsamples = 2\nvalue = [2, 0, 0, 0]"] ;
46 -> 47 ;
48 [label="x[0] <= 137.5\ngini = 0.444\nsamples = 3\nvalue = [2, 0, 0, 1]"] ;
46 -> 48 ;
49 [label="gini = 0.0\nsamples = 1\nvalue = [0, 0, 0, 1]"] ;
48 -> 49 ;
50 [label="gini = 0.0\nsamples = 2\nvalue = [2, 0, 0, 0]"] ;
48 -> 50 ;
51 [label="gini = 0.0\nsamples = 3\nvalue = [0, 0, 0, 3]"] ;
43 -> 51 ;
52 [label="x[1] <= 1.5\ngini = 0.485\nsamples = 13\nvalue = [1, 9, 2, 1]"] ;
10 -> 52 ;
53 [label="x[0] <= 151.5\ngini = 0.219\nsamples = 8\nvalue = [0, 7, 0, 1]"] ;
52 -> 53 ;
54 [label="x[2] <= 2.0\ngini = 0.375\nsamples = 4\nvalue = [0, 3, 0, 1]"] ;
53 -> 54 ;
55 [label="gini = 0.0\nsamples = 1\nvalue = [0, 1, 0, 0]"] ;
54 -> 55 ;
56 [label="x[2] <= 3.5\ngini = 0.444\nsamples = 3\nvalue = [0, 2, 0, 1]"] ;
54 -> 56 ;
57 [label="gini = 0.5\nsamples = 2\nvalue = [0, 1, 0, 1]"] ;
56 -> 57 ;
58 [label="gini = 0.0\nsamples = 1\nvalue = [0, 1, 0, 0]"] ;
56 -> 58 ;
59 [label="gini = 0.0\nsamples = 4\nvalue = [0, 4, 0, 0]"] ;
53 -> 59 ;
60 [label="x[2] <= 1.5\ngini = 0.64\nsamples = 5\nvalue = [1, 2, 2, 0]"] ;
52 -> 60 ;
61 [label="gini = 0.0\nsamples = 1\nvalue = [1, 0, 0, 0]"] ;
60 -> 61 ;
62 [label="x[2] <= 2.5\ngini = 0.5\nsamples = 4\nvalue = [0, 2, 2, 0]"] ;
60 -> 62 ;
63 [label="gini = 0.0\nsamples = 1\nvalue = [0, 1, 0, 0]"] ;
62 -> 63 ;
64 [label="x[0] <= 151.5\ngini = 0.444\nsamples = 3\nvalue = [0, 1, 2, 0]"] ;
62 -> 64 ;
65 [label="gini = 0.0\nsamples = 1\nvalue = [0, 1, 0, 0]"] ;
64 -> 65 ;
66 [label="gini = 0.0\nsamples = 2\nvalue = [0, 0, 2, 0]"] ;
64 -> 66 ;
67 [label="x[2] <= 2.5\ngini = 0.627\nsamples = 26\nvalue = [2, 6, 4, 14]"] ;
9 -> 67 ;
68 [label="x[0] <= 155.5\ngini = 0.656\nsamples = 8\nvalue = [1, 4, 2, 1]"] ;
67 -> 68 ;
69 [label="x[2] <= 1.5\ngini = 0.5\nsamples = 2\nvalue = [0, 0, 1, 1]"] ;
68 -> 69 ;
70 [label="gini = 0.0\nsamples = 1\nvalue = [0, 0, 0, 1]"] ;
69 -> 70 ;
71 [label="gini = 0.0\nsamples = 1\nvalue = [0, 0, 1, 0]"] ;
69 -> 71 ;
72 [label="x[0] <= 159.0\ngini = 0.5\nsamples = 6\nvalue = [1, 4, 1, 0]"] ;
68 -> 72 ;
73 [label="gini = 0.0\nsamples = 2\nvalue = [0, 2, 0, 0]"] ;
72 -> 73 ;
74 [label="x[0] <= 161.5\ngini = 0.625\nsamples = 4\nvalue = [1, 2, 1, 0]"] ;
72 -> 74 ;
75 [label="gini = 0.0\nsamples = 1\nvalue = [0, 0, 1, 0]"] ;
74 -> 75 ;
76 [label="x[2] <= 1.5\ngini = 0.444\nsamples = 3\nvalue = [1, 2, 0, 0]"] ;
74 -> 76 ;
77 [label="gini = 0.0\nsamples = 1\nvalue = [0, 1, 0, 0]"] ;
76 -> 77 ;
78 [label="x[0] <= 163.0\ngini = 0.5\nsamples = 2\nvalue = [1, 1, 0, 0]"] ;
76 -> 78 ;
79 [label="gini = 0.0\nsamples = 1\nvalue = [0, 1, 0, 0]"] ;
78 -> 79 ;
80 [label="gini = 0.0\nsamples = 1\nvalue = [1, 0, 0, 0]"] ;
78 -> 80 ;
81 [label="x[2] <= 4.5\ngini = 0.451\nsamples = 18\nvalue = [1, 2, 2, 13]"] ;
67 -> 81 ;
82 [label="x[0] <= 160.0\ngini = 0.367\nsamples = 14\nvalue = [1, 1, 1, 11]"] ;
81 -> 82 ;
83 [label="gini = 0.0\nsamples = 7\nvalue = [0, 0, 0, 7]"] ;
82 -> 83 ;
84 [label="x[1] <= 1.5\ngini = 0.612\nsamples = 7\nvalue = [1, 1, 1, 4]"] ;
82 -> 84 ;
85 [label="x[0] <= 162.0\ngini = 0.667\nsamples = 3\nvalue = [1, 0, 1, 1]"] ;
84 -> 85 ;
86 [label="gini = 0.0\nsamples = 1\nvalue = [1, 0, 0, 0]"] ;
85 -> 86 ;
87 [label="x[0] <= 163.5\ngini = 0.5\nsamples = 2\nvalue = [0, 0, 1, 1]"] ;
85 -> 87 ;
88 [label="gini = 0.0\nsamples = 1\nvalue = [0, 0, 1, 0]"] ;
87 -> 88 ;
89 [label="gini = 0.0\nsamples = 1\nvalue = [0, 0, 0, 1]"] ;
87 -> 89 ;
90 [label="x[2] <= 3.5\ngini = 0.375\nsamples = 4\nvalue = [0, 1, 0, 3]"] ;
84 -> 90 ;
91 [label="gini = 0.0\nsamples = 2\nvalue = [0, 0, 0, 2]"] ;
90 -> 91 ;
92 [label="x[0] <= 162.0\ngini = 0.5\nsamples = 2\nvalue = [0, 1, 0, 1]"] ;
90 -> 92 ;
93 [label="gini = 0.0\nsamples = 1\nvalue = [0, 0, 0, 1]"] ;
92 -> 93 ;
94 [label="gini = 0.0\nsamples = 1\nvalue = [0, 1, 0, 0]"] ;
92 -> 94 ;
95 [label="x[1] <= 1.5\ngini = 0.625\nsamples = 4\nvalue = [0, 1, 1, 2]"] ;
81 -> 95 ;
96 [label="gini = 0.0\nsamples = 1\nvalue = [0, 1, 0, 0]"] ;
95 -> 96 ;
97 [label="x[0] <= 155.5\ngini = 0.444\nsamples = 3\nvalue = [0, 0, 1, 2]"] ;
95 -> 97 ;
98 [label="gini = 0.0\nsamples = 1\nvalue = [0, 0, 1, 0]"] ;
97 -> 98 ;
99 [label="gini = 0.0\nsamples = 2\nvalue = [0, 0, 0, 2]"] ;
97 -> 99 ;
100 [label="x[2] <= 2.5\ngini = 0.658\nsamples = 15\nvalue = [6, 5, 0, 4]"] ;
8 -> 100 ;
101 [label="gini = 0.0\nsamples = 3\nvalue = [3, 0, 0, 0]"] ;
100 -> 101 ;
102 [label="x[0] <= 166.5\ngini = 0.653\nsamples = 12\nvalue = [3, 5, 0, 4]"] ;
100 -> 102 ;
103 [label="gini = 0.0\nsamples = 1\nvalue = [1, 0, 0, 0]"] ;
102 -> 103 ;
104 [label="x[0] <= 168.5\ngini = 0.628\nsamples = 11\nvalue = [2, 5, 0, 4]"] ;
102 -> 104 ;
105 [label="x[2] <= 4.5\ngini = 0.5\nsamples = 6\nvalue = [0, 3, 0, 3]"] ;
104 -> 105 ;
106 [label="x[1] <= 1.5\ngini = 0.48\nsamples = 5\nvalue = [0, 2, 0, 3]"] ;
105 -> 106 ;
107 [label="gini = 0.0\nsamples = 1\nvalue = [0, 0, 0, 1]"] ;
106 -> 107 ;
108 [label="x[0] <= 167.5\ngini = 0.5\nsamples = 4\nvalue = [0, 2, 0, 2]"] ;
106 -> 108 ;
109 [label="gini = 0.5\nsamples = 2\nvalue = [0, 1, 0, 1]"] ;
108 -> 109 ;
110 [label="gini = 0.5\nsamples = 2\nvalue = [0, 1, 0, 1]"] ;
108 -> 110 ;
111 [label="gini = 0.0\nsamples = 1\nvalue = [0, 1, 0, 0]"] ;
105 -> 111 ;
112 [label="x[0] <= 170.0\ngini = 0.64\nsamples = 5\nvalue = [2, 2, 0, 1]"] ;
104 -> 112 ;
113 [label="gini = 0.0\nsamples = 2\nvalue = [2, 0, 0, 0]"] ;
112 -> 113 ;
114 [label="x[2] <= 4.5\ngini = 0.444\nsamples = 3\nvalue = [0, 2, 0, 1]"] ;
112 -> 114 ;
115 [label="gini = 0.0\nsamples = 2\nvalue = [0, 2, 0, 0]"] ;
114 -> 115 ;
116 [label="gini = 0.0\nsamples = 1\nvalue = [0, 0, 0, 1]"] ;
114 -> 116 ;
117 [label="gini = 0.0\nsamples = 3\nvalue = [0, 0, 0, 3]"] ;
7 -> 117 ;
118 [label="x[2] <= 3.5\ngini = 0.691\nsamples = 195\nvalue = [37, 81, 18, 59]"] ;
6 -> 118 ;
119 [label="x[0] <= 180.5\ngini = 0.7\nsamples = 116\nvalue = [24, 41, 10, 41]"] ;
118 -> 119 ;
120 [label="x[0] <= 176.5\ngini = 0.582\nsamples = 19\nvalue = [2, 11, 1, 5]"] ;
119 -> 120 ;
121 [label="x[2] <= 1.5\ngini = 0.571\nsamples = 7\nvalue = [1, 2, 0, 4]"] ;
120 -> 121 ;
122 [label="gini = 0.0\nsamples = 1\nvalue = [0, 1, 0, 0]"] ;
121 -> 122 ;
123 [label="x[2] <= 2.5\ngini = 0.5\nsamples = 6\nvalue = [1, 1, 0, 4]"] ;
121 -> 123 ;
124 [label="gini = 0.0\nsamples = 3\nvalue = [0, 0, 0, 3]"] ;
123 -> 124 ;
125 [label="x[0] <= 175.5\ngini = 0.667\nsamples = 3\nvalue = [1, 1, 0, 1]"] ;
123 -> 125 ;
126 [label="gini = 0.0\nsamples = 1\nvalue = [1, 0, 0, 0]"] ;
125 -> 126 ;
127 [label="gini = 0.5\nsamples = 2\nvalue = [0, 1, 0, 1]"] ;
125 -> 127 ;
128 [label="x[2] <= 1.5\ngini = 0.417\nsamples = 12\nvalue = [1, 9, 1, 1]"] ;
120 -> 128 ;
129 [label="x[1] <= 1.5\ngini = 0.444\nsamples = 3\nvalue = [0, 2, 0, 1]"] ;
128 -> 129 ;
130 [label="gini = 0.0\nsamples = 1\nvalue = [0, 0, 0, 1]"] ;
129 -> 130 ;
131 [label="gini = 0.0\nsamples = 2\nvalue = [0, 2, 0, 0]"] ;
129 -> 131 ;
132 [label="x[1] <= 1.5\ngini = 0.37\nsamples = 9\nvalue = [1, 7, 1, 0]"] ;
128 -> 132 ;
133 [label="gini = 0.0\nsamples = 5\nvalue = [0, 5, 0, 0]"] ;
132 -> 133 ;
134 [label="x[2] <= 2.5\ngini = 0.625\nsamples = 4\nvalue = [1, 2, 1, 0]"] ;
132 -> 134 ;
135 [label="gini = 0.0\nsamples = 1\nvalue = [0, 1, 0, 0]"] ;
134 -> 135 ;
136 [label="x[0] <= 177.5\ngini = 0.667\nsamples = 3\nvalue = [1, 1, 1, 0]"] ;
134 -> 136 ;
137 [label="gini = 0.0\nsamples = 1\nvalue = [0, 1, 0, 0]"] ;
136 -> 137 ;
138 [label="x[0] <= 178.5\ngini = 0.5\nsamples = 2\nvalue = [1, 0, 1, 0]"] ;
136 -> 138 ;
139 [label="gini = 0.0\nsamples = 1\nvalue = [0, 0, 1, 0]"] ;
138 -> 139 ;
140 [label="gini = 0.0\nsamples = 1\nvalue = [1, 0, 0, 0]"] ;
138 -> 140 ;
141 [label="x[2] <= 1.5\ngini = 0.707\nsamples = 97\nvalue = [22, 30, 9, 36]"] ;
119 -> 141 ;
142 [label="x[0] <= 215.5\ngini = 0.686\nsamples = 13\nvalue = [6, 2, 2, 3]"] ;
141 -> 142 ;
143 [label="x[1] <= 1.5\ngini = 0.653\nsamples = 12\nvalue = [6, 2, 1, 3]"] ;
142 -> 143 ;
144 [label="x[0] <= 188.5\ngini = 0.449\nsamples = 7\nvalue = [5, 1, 0, 1]"] ;
143 -> 144 ;
145 [label="x[0] <= 183.5\ngini = 0.5\nsamples = 2\nvalue = [1, 0, 0, 1]"] ;
144 -> 145 ;
146 [label="gini = 0.0\nsamples = 1\nvalue = [1, 0, 0, 0]"] ;
145 -> 146 ;
147 [label="gini = 0.0\nsamples = 1\nvalue = [0, 0, 0, 1]"] ;
145 -> 147 ;
148 [label="x[0] <= 202.0\ngini = 0.32\nsamples = 5\nvalue = [4, 1, 0, 0]"] ;
144 -> 148 ;
149 [label="gini = 0.0\nsamples = 3\nvalue = [3, 0, 0, 0]"] ;
148 -> 149 ;
150 [label="x[0] <= 208.5\ngini = 0.5\nsamples = 2\nvalue = [1, 1, 0, 0]"] ;
148 -> 150 ;
151 [label="gini = 0.0\nsamples = 1\nvalue = [0, 1, 0, 0]"] ;
150 -> 151 ;
152 [label="gini = 0.0\nsamples = 1\nvalue = [1, 0, 0, 0]"] ;
150 -> 152 ;
153 [label="x[0] <= 186.0\ngini = 0.72\nsamples = 5\nvalue = [1, 1, 1, 2]"] ;
143 -> 153 ;
154 [label="gini = 0.0\nsamples = 1\nvalue = [0, 0, 0, 1]"] ;
153 -> 154 ;
155 [label="x[0] <= 192.5\ngini = 0.75\nsamples = 4\nvalue = [1, 1, 1, 1]"] ;
153 -> 155 ;
156 [label="gini = 0.0\nsamples = 1\nvalue = [0, 0, 1, 0]"] ;
155 -> 156 ;
157 [label="x[0] <= 198.0\ngini = 0.667\nsamples = 3\nvalue = [1, 1, 0, 1]"] ;
155 -> 157 ;
158 [label="gini = 0.0\nsamples = 1\nvalue = [0, 1, 0, 0]"] ;
157 -> 158 ;
159 [label="x[0] <= 205.0\ngini = 0.5\nsamples = 2\nvalue = [1, 0, 0, 1]"] ;
157 -> 159 ;
160 [label="gini = 0.0\nsamples = 1\nvalue = [1, 0, 0, 0]"] ;
159 -> 160 ;
161 [label="gini = 0.0\nsamples = 1\nvalue = [0, 0, 0, 1]"] ;
159 -> 161 ;
162 [label="gini = 0.0\nsamples = 1\nvalue = [0, 0, 1, 0]"] ;
142 -> 162 ;
163 [label="x[0] <= 188.5\ngini = 0.691\nsamples = 84\nvalue = [16, 28, 7, 33]"] ;
141 -> 163 ;
164 [label="x[2] <= 2.5\ngini = 0.72\nsamples = 15\nvalue = [5, 5, 3, 2]"] ;
163 -> 164 ;
165 [label="x[1] <= 1.5\ngini = 0.612\nsamples = 7\nvalue = [4, 1, 1, 1]"] ;
164 -> 165 ;
166 [label="x[0] <= 182.5\ngini = 0.375\nsamples = 4\nvalue = [3, 1, 0, 0]"] ;
165 -> 166 ;
167 [label="x[0] <= 181.5\ngini = 0.5\nsamples = 2\nvalue = [1, 1, 0, 0]"] ;
166 -> 167 ;
168 [label="gini = 0.0\nsamples = 1\nvalue = [1, 0, 0, 0]"] ;
167 -> 168 ;
169 [label="gini = 0.0\nsamples = 1\nvalue = [0, 1, 0, 0]"] ;
167 -> 169 ;
170 [label="gini = 0.0\nsamples = 2\nvalue = [2, 0, 0, 0]"] ;
166 -> 170 ;
171 [label="x[0] <= 185.0\ngini = 0.667\nsamples = 3\nvalue = [1, 0, 1, 1]"] ;
165 -> 171 ;
172 [label="gini = 0.0\nsamples = 1\nvalue = [0, 0, 1, 0]"] ;
171 -> 172 ;
173 [label="gini = 0.5\nsamples = 2\nvalue = [1, 0, 0, 1]"] ;
171 -> 173 ;
174 [label="x[1] <= 1.5\ngini = 0.656\nsamples = 8\nvalue = [1, 4, 2, 1]"] ;
164 -> 174 ;
175 [label="x[0] <= 184.0\ngini = 0.75\nsamples = 4\nvalue = [1, 1, 1, 1]"] ;
174 -> 175 ;
176 [label="gini = 0.0\nsamples = 1\nvalue = [0, 0, 1, 0]"] ;
175 -> 176 ;
177 [label="x[0] <= 185.5\ngini = 0.667\nsamples = 3\nvalue = [1, 1, 0, 1]"] ;
175 -> 177 ;
178 [label="gini = 0.0\nsamples = 1\nvalue = [0, 0, 0, 1]"] ;
177 -> 178 ;
179 [label="x[0] <= 187.0\ngini = 0.5\nsamples = 2\nvalue = [1, 1, 0, 0]"] ;
177 -> 179 ;
180 [label="gini = 0.0\nsamples = 1\nvalue = [0, 1, 0, 0]"] ;
179 -> 180 ;
181 [label="gini = 0.0\nsamples = 1\nvalue = [1, 0, 0, 0]"] ;
179 -> 181 ;
182 [label="x[0] <= 184.0\ngini = 0.375\nsamples = 4\nvalue = [0, 3, 1, 0]"] ;
174 -> 182 ;
183 [label="gini = 0.0\nsamples = 1\nvalue = [0, 1, 0, 0]"] ;
182 -> 183 ;
184 [label="x[0] <= 186.5\ngini = 0.444\nsamples = 3\nvalue = [0, 2, 1, 0]"] ;
182 -> 184 ;
185 [label="gini = 0.5\nsamples = 2\nvalue = [0, 1, 1, 0]"] ;
184 -> 185 ;
186 [label="gini = 0.0\nsamples = 1\nvalue = [0, 1, 0, 0]"] ;
184 -> 186 ;
187 [label="x[0] <= 217.5\ngini = 0.658\nsamples = 69\nvalue = [11, 23, 4, 31]"] ;
163 -> 187 ;
188 [label="x[0] <= 215.5\ngini = 0.633\nsamples = 63\nvalue = [8, 22, 3, 30]"] ;
187 -> 188 ;
189 [label="x[0] <= 209.5\ngini = 0.646\nsamples = 59\nvalue = [8, 22, 3, 26]"] ;
188 -> 189 ;
190 [label="x[0] <= 192.5\ngini = 0.629\nsamples = 47\nvalue = [5, 16, 3, 23]"] ;
189 -> 190 ;
191 [label="x[0] <= 190.5\ngini = 0.496\nsamples = 11\nvalue = [0, 6, 0, 5]"] ;
190 -> 191 ;
192 [label="x[1] <= 1.5\ngini = 0.48\nsamples = 5\nvalue = [0, 3, 0, 2]"] ;
191 -> 192 ;
193 [label="x[0] <= 189.5\ngini = 0.444\nsamples = 3\nvalue = [0, 1, 0, 2]"] ;
192 -> 193 ;
194 [label="gini = 0.0\nsamples = 2\nvalue = [0, 0, 0, 2]"] ;
193 -> 194 ;
195 [label="gini = 0.0\nsamples = 1\nvalue = [0, 1, 0, 0]"] ;
193 -> 195 ;
196 [label="gini = 0.0\nsamples = 2\nvalue = [0, 2, 0, 0]"] ;
192 -> 196 ;
197 [label="x[1] <= 1.5\ngini = 0.5\nsamples = 6\nvalue = [0, 3, 0, 3]"] ;
191 -> 197 ;
198 [label="gini = 0.0\nsamples = 1\nvalue = [0, 1, 0, 0]"] ;
197 -> 198 ;
199 [label="x[0] <= 191.5\ngini = 0.48\nsamples = 5\nvalue = [0, 2, 0, 3]"] ;
197 -> 199 ;
200 [label="x[2] <= 2.5\ngini = 0.444\nsamples = 3\nvalue = [0, 1, 0, 2]"] ;
199 -> 200 ;
201 [label="gini = 0.0\nsamples = 2\nvalue = [0, 0, 0, 2]"] ;
200 -> 201 ;
202 [label="gini = 0.0\nsamples = 1\nvalue = [0, 1, 0, 0]"] ;
200 -> 202 ;
203 [label="x[2] <= 2.5\ngini = 0.5\nsamples = 2\nvalue = [0, 1, 0, 1]"] ;
199 -> 203 ;
204 [label="gini = 0.0\nsamples = 1\nvalue = [0, 1, 0, 0]"] ;
203 -> 204 ;
205 [label="gini = 0.0\nsamples = 1\nvalue = [0, 0, 0, 1]"] ;
203 -> 205 ;
206 [label="x[0] <= 193.5\ngini = 0.647\nsamples = 36\nvalue = [5, 10, 3, 18]"] ;
190 -> 206 ;
207 [label="x[2] <= 2.5\ngini = 0.444\nsamples = 3\nvalue = [2, 0, 0, 1]"] ;
206 -> 207 ;
208 [label="gini = 0.0\nsamples = 1\nvalue = [0, 0, 0, 1]"] ;
207 -> 208 ;
209 [label="gini = 0.0\nsamples = 2\nvalue = [2, 0, 0, 0]"] ;
207 -> 209 ;
210 [label="x[0] <= 194.5\ngini = 0.626\nsamples = 33\nvalue = [3, 10, 3, 17]"] ;
206 -> 210 ;
211 [label="x[1] <= 1.5\ngini = 0.375\nsamples = 4\nvalue = [0, 0, 1, 3]"] ;
210 -> 211 ;
212 [label="gini = 0.5\nsamples = 2\nvalue = [0, 0, 1, 1]"] ;
211 -> 212 ;
213 [label="gini = 0.0\nsamples = 2\nvalue = [0, 0, 0, 2]"] ;
211 -> 213 ;
214 [label="x[0] <= 197.5\ngini = 0.633\nsamples = 29\nvalue = [3, 10, 2, 14]"] ;
210 -> 214 ;
215 [label="x[0] <= 195.5\ngini = 0.444\nsamples = 6\nvalue = [0, 4, 0, 2]"] ;
214 -> 215 ;
216 [label="gini = 0.5\nsamples = 2\nvalue = [0, 1, 0, 1]"] ;
215 -> 216 ;
217 [label="x[1] <= 1.5\ngini = 0.375\nsamples = 4\nvalue = [0, 3, 0, 1]"] ;
215 -> 217 ;
218 [label="gini = 0.5\nsamples = 2\nvalue = [0, 1, 0, 1]"] ;
217 -> 218 ;
219 [label="gini = 0.0\nsamples = 2\nvalue = [0, 2, 0, 0]"] ;
217 -> 219 ;
220 [label="x[1] <= 1.5\ngini = 0.635\nsamples = 23\nvalue = [3, 6, 2, 12]"] ;
214 -> 220 ;
221 [label="x[0] <= 205.5\ngini = 0.625\nsamples = 8\nvalue = [0, 2, 2, 4]"] ;
220 -> 221 ;
222 [label="x[0] <= 203.5\ngini = 0.444\nsamples = 3\nvalue = [0, 0, 2, 1]"] ;
221 -> 222 ;
223 [label="gini = 0.0\nsamples = 1\nvalue = [0, 0, 0, 1]"] ;
222 -> 223 ;
224 [label="gini = 0.0\nsamples = 2\nvalue = [0, 0, 2, 0]"] ;
222 -> 224 ;
225 [label="x[0] <= 207.5\ngini = 0.48\nsamples = 5\nvalue = [0, 2, 0, 3]"] ;
221 -> 225 ;
226 [label="gini = 0.0\nsamples = 2\nvalue = [0, 0, 0, 2]"] ;
225 -> 226 ;
227 [label="x[2] <= 2.5\ngini = 0.444\nsamples = 3\nvalue = [0, 2, 0, 1]"] ;
225 -> 227 ;
228 [label="gini = 0.0\nsamples = 1\nvalue = [0, 1, 0, 0]"] ;
227 -> 228 ;
229 [label="gini = 0.5\nsamples = 2\nvalue = [0, 1, 0, 1]"] ;
227 -> 229 ;
230 [label="x[0] <= 199.0\ngini = 0.604\nsamples = 15\nvalue = [3, 4, 0, 8]"] ;
220 -> 230 ;
231 [label="gini = 0.5\nsamples = 2\nvalue = [1, 0, 0, 1]"] ;
230 -> 231 ;
232 [label="x[0] <= 208.0\ngini = 0.592\nsamples = 13\nvalue = [2, 4, 0, 7]"] ;
230 -> 232 ;
233 [label="x[0] <= 206.5\ngini = 0.611\nsamples = 12\nvalue = [2, 4, 0, 6]"] ;
232 -> 233 ;
234 [label="x[0] <= 203.0\ngini = 0.54\nsamples = 10\nvalue = [1, 3, 0, 6]"] ;
233 -> 234 ;
235 [label="x[0] <= 201.0\ngini = 0.625\nsamples = 4\nvalue = [1, 1, 0, 2]"] ;
234 -> 235 ;
236 [label="gini = 0.5\nsamples = 2\nvalue = [0, 1, 0, 1]"] ;
235 -> 236 ;
237 [label="gini = 0.5\nsamples = 2\nvalue = [1, 0, 0, 1]"] ;
235 -> 237 ;
238 [label="x[0] <= 205.5\ngini = 0.444\nsamples = 6\nvalue = [0, 2, 0, 4]"] ;
234 -> 238 ;
239 [label="x[0] <= 204.5\ngini = 0.375\nsamples = 4\nvalue = [0, 1, 0, 3]"] ;
238 -> 239 ;
240 [label="gini = 0.444\nsamples = 3\nvalue = [0, 1, 0, 2]"] ;
239 -> 240 ;
241 [label="gini = 0.0\nsamples = 1\nvalue = [0, 0, 0, 1]"] ;
239 -> 241 ;
242 [label="gini = 0.5\nsamples = 2\nvalue = [0, 1, 0, 1]"] ;
238 -> 242 ;
243 [label="gini = 0.5\nsamples = 2\nvalue = [1, 1, 0, 0]"] ;
233 -> 243 ;
244 [label="gini = 0.0\nsamples = 1\nvalue = [0, 0, 0, 1]"] ;
232 -> 244 ;
245 [label="x[0] <= 212.5\ngini = 0.625\nsamples = 12\nvalue = [3, 6, 0, 3]"] ;
189 -> 245 ;
246 [label="x[1] <= 1.5\ngini = 0.278\nsamples = 6\nvalue = [1, 5, 0, 0]"] ;
245 -> 246 ;
247 [label="gini = 0.0\nsamples = 2\nvalue = [0, 2, 0, 0]"] ;
246 -> 247 ;
248 [label="x[0] <= 210.5\ngini = 0.375\nsamples = 4\nvalue = [1, 3, 0, 0]"] ;
246 -> 248 ;
249 [label="gini = 0.0\nsamples = 1\nvalue = [0, 1, 0, 0]"] ;
248 -> 249 ;
250 [label="x[0] <= 211.5\ngini = 0.444\nsamples = 3\nvalue = [1, 2, 0, 0]"] ;
248 -> 250 ;
251 [label="gini = 0.5\nsamples = 2\nvalue = [1, 1, 0, 0]"] ;
250 -> 251 ;
252 [label="gini = 0.0\nsamples = 1\nvalue = [0, 1, 0, 0]"] ;
250 -> 252 ;
253 [label="x[0] <= 214.5\ngini = 0.611\nsamples = 6\nvalue = [2, 1, 0, 3]"] ;
245 -> 253 ;
254 [label="x[0] <= 213.5\ngini = 0.48\nsamples = 5\nvalue = [2, 0, 0, 3]"] ;
253 -> 254 ;
255 [label="gini = 0.0\nsamples = 1\nvalue = [1, 0, 0, 0]"] ;
254 -> 255 ;
256 [label="x[1] <= 1.5\ngini = 0.375\nsamples = 4\nvalue = [1, 0, 0, 3]"] ;
254 -> 256 ;
257 [label="gini = 0.0\nsamples = 2\nvalue = [0, 0, 0, 2]"] ;
256 -> 257 ;
258 [label="gini = 0.5\nsamples = 2\nvalue = [1, 0, 0, 1]"] ;
256 -> 258 ;
259 [label="gini = 0.0\nsamples = 1\nvalue = [0, 1, 0, 0]"] ;
253 -> 259 ;
260 [label="gini = 0.0\nsamples = 4\nvalue = [0, 0, 0, 4]"] ;
188 -> 260 ;
261 [label="x[0] <= 219.5\ngini = 0.667\nsamples = 6\nvalue = [3, 1, 1, 1]"] ;
187 -> 261 ;
262 [label="x[0] <= 218.5\ngini = 0.375\nsamples = 4\nvalue = [3, 1, 0, 0]"] ;
261 -> 262 ;
263 [label="x[2] <= 2.5\ngini = 0.5\nsamples = 2\nvalue = [1, 1, 0, 0]"] ;
262 -> 263 ;
264 [label="gini = 0.0\nsamples = 1\nvalue = [1, 0, 0, 0]"] ;
263 -> 264 ;
265 [label="gini = 0.0\nsamples = 1\nvalue = [0, 1, 0, 0]"] ;
263 -> 265 ;
266 [label="gini = 0.0\nsamples = 2\nvalue = [2, 0, 0, 0]"] ;
262 -> 266 ;
267 [label="x[1] <= 1.5\ngini = 0.5\nsamples = 2\nvalue = [0, 0, 1, 1]"] ;
261 -> 267 ;
268 [label="gini = 0.0\nsamples = 1\nvalue = [0, 0, 1, 0]"] ;
267 -> 268 ;
269 [label="gini = 0.0\nsamples = 1\nvalue = [0, 0, 0, 1]"] ;
267 -> 269 ;
270 [label="x[0] <= 189.5\ngini = 0.654\nsamples = 79\nvalue = [13, 40, 8, 18]"] ;
118 -> 270 ;
271 [label="x[1] <= 1.5\ngini = 0.493\nsamples = 19\nvalue = [1, 13, 3, 2]"] ;
270 -> 271 ;
272 [label="x[2] <= 4.5\ngini = 0.298\nsamples = 11\nvalue = [0, 9, 0, 2]"] ;
271 -> 272 ;
273 [label="x[0] <= 183.0\ngini = 0.198\nsamples = 9\nvalue = [0, 8, 0, 1]"] ;
272 -> 273 ;
274 [label="gini = 0.0\nsamples = 5\nvalue = [0, 5, 0, 0]"] ;
273 -> 274 ;
275 [label="x[0] <= 185.5\ngini = 0.375\nsamples = 4\nvalue = [0, 3, 0, 1]"] ;
273 -> 275 ;
276 [label="gini = 0.5\nsamples = 2\nvalue = [0, 1, 0, 1]"] ;
275 -> 276 ;
277 [label="gini = 0.0\nsamples = 2\nvalue = [0, 2, 0, 0]"] ;
275 -> 277 ;
278 [label="x[0] <= 184.0\ngini = 0.5\nsamples = 2\nvalue = [0, 1, 0, 1]"] ;
272 -> 278 ;
279 [label="gini = 0.0\nsamples = 1\nvalue = [0, 0, 0, 1]"] ;
278 -> 279 ;
280 [label="gini = 0.0\nsamples = 1\nvalue = [0, 1, 0, 0]"] ;
278 -> 280 ;
281 [label="x[0] <= 176.5\ngini = 0.594\nsamples = 8\nvalue = [1, 4, 3, 0]"] ;
271 -> 281 ;
282 [label="gini = 0.0\nsamples = 2\nvalue = [0, 2, 0, 0]"] ;
281 -> 282 ;
283 [label="x[2] <= 4.5\ngini = 0.611\nsamples = 6\nvalue = [1, 2, 3, 0]"] ;
281 -> 283 ;
284 [label="x[0] <= 184.5\ngini = 0.375\nsamples = 4\nvalue = [0, 1, 3, 0]"] ;
283 -> 284 ;
285 [label="gini = 0.0\nsamples = 2\nvalue = [0, 0, 2, 0]"] ;
284 -> 285 ;
286 [label="x[0] <= 188.0\ngini = 0.5\nsamples = 2\nvalue = [0, 1, 1, 0]"] ;
284 -> 286 ;
287 [label="gini = 0.0\nsamples = 1\nvalue = [0, 1, 0, 0]"] ;
286 -> 287 ;
288 [label="gini = 0.0\nsamples = 1\nvalue = [0, 0, 1, 0]"] ;
286 -> 288 ;
289 [label="x[0] <= 184.0\ngini = 0.5\nsamples = 2\nvalue = [1, 1, 0, 0]"] ;
283 -> 289 ;
290 [label="gini = 0.0\nsamples = 1\nvalue = [1, 0, 0, 0]"] ;
289 -> 290 ;
291 [label="gini = 0.0\nsamples = 1\nvalue = [0, 1, 0, 0]"] ;
289 -> 291 ;
292 [label="x[0] <= 216.5\ngini = 0.679\nsamples = 60\nvalue = [12, 27, 5, 16]"] ;
270 -> 292 ;
293 [label="x[0] <= 213.5\ngini = 0.694\nsamples = 51\nvalue = [12, 21, 4, 14]"] ;
292 -> 293 ;
294 [label="x[2] <= 4.5\ngini = 0.671\nsamples = 43\nvalue = [10, 20, 3, 10]"] ;
293 -> 294 ;
295 [label="x[0] <= 203.5\ngini = 0.625\nsamples = 28\nvalue = [4, 15, 2, 7]"] ;
294 -> 295 ;
296 [label="x[0] <= 194.5\ngini = 0.498\nsamples = 15\nvalue = [3, 10, 0, 2]"] ;
295 -> 296 ;
297 [label="x[0] <= 191.5\ngini = 0.571\nsamples = 7\nvalue = [1, 4, 0, 2]"] ;
296 -> 297 ;
298 [label="gini = 0.0\nsamples = 1\nvalue = [0, 1, 0, 0]"] ;
297 -> 298 ;
299 [label="x[1] <= 1.5\ngini = 0.611\nsamples = 6\nvalue = [1, 3, 0, 2]"] ;
297 -> 299 ;
300 [label="gini = 0.5\nsamples = 2\nvalue = [0, 1, 0, 1]"] ;
299 -> 300 ;
301 [label="gini = 0.625\nsamples = 4\nvalue = [1, 2, 0, 1]"] ;
299 -> 301 ;
302 [label="x[0] <= 201.5\ngini = 0.375\nsamples = 8\nvalue = [2, 6, 0, 0]"] ;
296 -> 302 ;
303 [label="x[0] <= 198.5\ngini = 0.278\nsamples = 6\nvalue = [1, 5, 0, 0]"] ;
302 -> 303 ;
304 [label="x[1] <= 1.5\ngini = 0.444\nsamples = 3\nvalue = [1, 2, 0, 0]"] ;
303 -> 304 ;
305 [label="gini = 0.0\nsamples = 1\nvalue = [1, 0, 0, 0]"] ;
304 -> 305 ;
306 [label="gini = 0.0\nsamples = 2\nvalue = [0, 2, 0, 0]"] ;
304 -> 306 ;
307 [label="gini = 0.0\nsamples = 3\nvalue = [0, 3, 0, 0]"] ;
303 -> 307 ;
308 [label="x[0] <= 202.5\ngini = 0.5\nsamples = 2\nvalue = [1, 1, 0, 0]"] ;
302 -> 308 ;
309 [label="gini = 0.0\nsamples = 1\nvalue = [1, 0, 0, 0]"] ;
308 -> 309 ;
310 [label="gini = 0.0\nsamples = 1\nvalue = [0, 1, 0, 0]"] ;
308 -> 310 ;
311 [label="x[0] <= 207.5\ngini = 0.675\nsamples = 13\nvalue = [1, 5, 2, 5]"] ;
295 -> 311 ;
312 [label="x[0] <= 206.5\ngini = 0.64\nsamples = 10\nvalue = [1, 3, 1, 5]"] ;
311 -> 312 ;
313 [label="x[1] <= 1.5\ngini = 0.5\nsamples = 6\nvalue = [0, 3, 0, 3]"] ;
312 -> 313 ;
314 [label="gini = 0.444\nsamples = 3\nvalue = [0, 1, 0, 2]"] ;
313 -> 314 ;
315 [label="x[0] <= 205.0\ngini = 0.444\nsamples = 3\nvalue = [0, 2, 0, 1]"] ;
313 -> 315 ;
316 [label="gini = 0.5\nsamples = 2\nvalue = [0, 1, 0, 1]"] ;
315 -> 316 ;
317 [label="gini = 0.0\nsamples = 1\nvalue = [0, 1, 0, 0]"] ;
315 -> 317 ;
318 [label="x[1] <= 1.5\ngini = 0.625\nsamples = 4\nvalue = [1, 0, 1, 2]"] ;
312 -> 318 ;
319 [label="gini = 0.5\nsamples = 2\nvalue = [1, 0, 0, 1]"] ;
318 -> 319 ;
320 [label="gini = 0.5\nsamples = 2\nvalue = [0, 0, 1, 1]"] ;
318 -> 320 ;
321 [label="x[0] <= 209.0\ngini = 0.444\nsamples = 3\nvalue = [0, 2, 1, 0]"] ;
311 -> 321 ;
322 [label="gini = 0.0\nsamples = 1\nvalue = [0, 1, 0, 0]"] ;
321 -> 322 ;
323 [label="x[0] <= 211.5\ngini = 0.5\nsamples = 2\nvalue = [0, 1, 1, 0]"] ;
321 -> 323 ;
324 [label="gini = 0.0\nsamples = 1\nvalue = [0, 0, 1, 0]"] ;
323 -> 324 ;
325 [label="gini = 0.0\nsamples = 1\nvalue = [0, 1, 0, 0]"] ;
323 -> 325 ;
326 [label="x[0] <= 199.5\ngini = 0.684\nsamples = 15\nvalue = [6, 5, 1, 3]"] ;
294 -> 326 ;
327 [label="x[0] <= 195.5\ngini = 0.375\nsamples = 4\nvalue = [0, 0, 1, 3]"] ;
326 -> 327 ;
328 [label="x[0] <= 191.5\ngini = 0.5\nsamples = 2\nvalue = [0, 0, 1, 1]"] ;
327 -> 328 ;
329 [label="gini = 0.0\nsamples = 1\nvalue = [0, 0, 0, 1]"] ;
328 -> 329 ;
330 [label="gini = 0.0\nsamples = 1\nvalue = [0, 0, 1, 0]"] ;
328 -> 330 ;
331 [label="gini = 0.0\nsamples = 2\nvalue = [0, 0, 0, 2]"] ;
327 -> 331 ;
332 [label="x[0] <= 204.5\ngini = 0.496\nsamples = 11\nvalue = [6, 5, 0, 0]"] ;
326 -> 332 ;
333 [label="gini = 0.0\nsamples = 2\nvalue = [2, 0, 0, 0]"] ;
332 -> 333 ;
334 [label="x[0] <= 205.5\ngini = 0.494\nsamples = 9\nvalue = [4, 5, 0, 0]"] ;
332 -> 334 ;
335 [label="gini = 0.0\nsamples = 3\nvalue = [0, 3, 0, 0]"] ;
334 -> 335 ;
336 [label="x[0] <= 208.5\ngini = 0.444\nsamples = 6\nvalue = [4, 2, 0, 0]"] ;
334 -> 336 ;
337 [label="gini = 0.0\nsamples = 2\nvalue = [2, 0, 0, 0]"] ;
336 -> 337 ;
338 [label="x[0] <= 211.5\ngini = 0.5\nsamples = 4\nvalue = [2, 2, 0, 0]"] ;
336 -> 338 ;
339 [label="gini = 0.5\nsamples = 2\nvalue = [1, 1, 0, 0]"] ;
338 -> 339 ;
340 [label="gini = 0.5\nsamples = 2\nvalue = [1, 1, 0, 0]"] ;
338 -> 340 ;
341 [label="x[0] <= 214.5\ngini = 0.656\nsamples = 8\nvalue = [2, 1, 1, 4]"] ;
293 -> 341 ;
342 [label="x[1] <= 1.5\ngini = 0.375\nsamples = 4\nvalue = [1, 0, 0, 3]"] ;
341 -> 342 ;
343 [label="gini = 0.0\nsamples = 2\nvalue = [0, 0, 0, 2]"] ;
342 -> 343 ;
344 [label="gini = 0.5\nsamples = 2\nvalue = [1, 0, 0, 1]"] ;
342 -> 344 ;
345 [label="x[0] <= 215.5\ngini = 0.75\nsamples = 4\nvalue = [1, 1, 1, 1]"] ;
341 -> 345 ;
346 [label="gini = 0.0\nsamples = 1\nvalue = [0, 0, 1, 0]"] ;
345 -> 346 ;
347 [label="x[1] <= 1.5\ngini = 0.667\nsamples = 3\nvalue = [1, 1, 0, 1]"] ;
345 -> 347 ;
348 [label="gini = 0.5\nsamples = 2\nvalue = [1, 1, 0, 0]"] ;
347 -> 348 ;
349 [label="gini = 0.0\nsamples = 1\nvalue = [0, 0, 0, 1]"] ;
347 -> 349 ;
350 [label="x[0] <= 219.5\ngini = 0.494\nsamples = 9\nvalue = [0, 6, 1, 2]"] ;
292 -> 350 ;
351 [label="x[0] <= 218.5\ngini = 0.449\nsamples = 7\nvalue = [0, 5, 1, 1]"] ;
350 -> 351 ;
352 [label="x[0] <= 217.5\ngini = 0.56\nsamples = 5\nvalue = [0, 3, 1, 1]"] ;
351 -> 352 ;
353 [label="x[2] <= 4.5\ngini = 0.375\nsamples = 4\nvalue = [0, 3, 0, 1]"] ;
352 -> 353 ;
354 [label="gini = 0.0\nsamples = 1\nvalue = [0, 1, 0, 0]"] ;
353 -> 354 ;
355 [label="gini = 0.444\nsamples = 3\nvalue = [0, 2, 0, 1]"] ;
353 -> 355 ;
356 [label="gini = 0.0\nsamples = 1\nvalue = [0, 0, 1, 0]"] ;
352 -> 356 ;
357 [label="gini = 0.0\nsamples = 2\nvalue = [0, 2, 0, 0]"] ;
351 -> 357 ;
358 [label="gini = 0.5\nsamples = 2\nvalue = [0, 1, 0, 1]"] ;
350 -> 358 ;
359 [label="x[1] <= 1.5\ngini = 0.444\nsamples = 6\nvalue = [4, 2, 0, 0]"] ;
5 -> 359 ;
360 [label="gini = 0.0\nsamples = 2\nvalue = [2, 0, 0, 0]"] ;
359 -> 360 ;
361 [label="x[0] <= 221.5\ngini = 0.5\nsamples = 4\nvalue = [2, 2, 0, 0]"] ;
359 -> 361 ;
362 [label="gini = 0.0\nsamples = 2\nvalue = [2, 0, 0, 0]"] ;
361 -> 362 ;
363 [label="gini = 0.0\nsamples = 2\nvalue = [0, 2, 0, 0]"] ;
361 -> 363 ;
364 [label="x[1] <= 1.5\ngini = 0.198\nsamples = 9\nvalue = [0, 8, 0, 1]"] ;
4 -> 364 ;
365 [label="x[2] <= 2.5\ngini = 0.5\nsamples = 2\nvalue = [0, 1, 0, 1]"] ;
364 -> 365 ;
366 [label="gini = 0.0\nsamples = 1\nvalue = [0, 1, 0, 0]"] ;
365 -> 366 ;
367 [label="gini = 0.0\nsamples = 1\nvalue = [0, 0, 0, 1]"] ;
365 -> 367 ;
368 [label="gini = 0.0\nsamples = 7\nvalue = [0, 7, 0, 0]"] ;
364 -> 368 ;
369 [label="x[0] <= 225.5\ngini = 0.706\nsamples = 177\nvalue = [31, 56, 22, 68]"] ;
3 -> 369 ;
370 [label="x[2] <= 3.5\ngini = 0.627\nsamples = 13\nvalue = [5, 1, 1, 6]"] ;
369 -> 370 ;
371 [label="x[0] <= 224.5\ngini = 0.72\nsamples = 5\nvalue = [1, 1, 1, 2]"] ;
370 -> 371 ;
372 [label="gini = 0.0\nsamples = 1\nvalue = [0, 1, 0, 0]"] ;
371 -> 372 ;
373 [label="x[2] <= 2.5\ngini = 0.625\nsamples = 4\nvalue = [1, 0, 1, 2]"] ;
371 -> 373 ;
374 [label="gini = 0.0\nsamples = 1\nvalue = [0, 0, 0, 1]"] ;
373 -> 374 ;
375 [label="gini = 0.667\nsamples = 3\nvalue = [1, 0, 1, 1]"] ;
373 -> 375 ;
376 [label="x[1] <= 1.5\ngini = 0.5\nsamples = 8\nvalue = [4, 0, 0, 4]"] ;
370 -> 376 ;
377 [label="x[0] <= 224.5\ngini = 0.49\nsamples = 7\nvalue = [3, 0, 0, 4]"] ;
376 -> 377 ;
378 [label="gini = 0.0\nsamples = 2\nvalue = [0, 0, 0, 2]"] ;
377 -> 378 ;
379 [label="x[2] <= 4.5\ngini = 0.48\nsamples = 5\nvalue = [3, 0, 0, 2]"] ;
377 -> 379 ;
380 [label="gini = 0.5\nsamples = 4\nvalue = [2, 0, 0, 2]"] ;
379 -> 380 ;
381 [label="gini = 0.0\nsamples = 1\nvalue = [1, 0, 0, 0]"] ;
379 -> 381 ;
382 [label="gini = 0.0\nsamples = 1\nvalue = [1, 0, 0, 0]"] ;
376 -> 382 ;
383 [label="x[2] <= 2.5\ngini = 0.703\nsamples = 164\nvalue = [26, 55, 21, 62]"] ;
369 -> 383 ;
384 [label="x[0] <= 276.5\ngini = 0.659\nsamples = 38\nvalue = [8, 10, 2, 18]"] ;
383 -> 384 ;
385 [label="x[2] <= 1.5\ngini = 0.654\nsamples = 37\nvalue = [8, 9, 2, 18]"] ;
384 -> 385 ;
386 [label="x[0] <= 263.0\ngini = 0.628\nsamples = 11\nvalue = [2, 5, 0, 4]"] ;
385 -> 386 ;
387 [label="x[0] <= 228.0\ngini = 0.593\nsamples = 9\nvalue = [2, 5, 0, 2]"] ;
386 -> 387 ;
388 [label="gini = 0.0\nsamples = 1\nvalue = [0, 0, 0, 1]"] ;
387 -> 388 ;
389 [label="x[0] <= 257.0\ngini = 0.531\nsamples = 8\nvalue = [2, 5, 0, 1]"] ;
387 -> 389 ;
390 [label="x[0] <= 237.0\ngini = 0.449\nsamples = 7\nvalue = [1, 5, 0, 1]"] ;
389 -> 390 ;
391 [label="gini = 0.0\nsamples = 3\nvalue = [0, 3, 0, 0]"] ;
390 -> 391 ;
392 [label="x[0] <= 239.5\ngini = 0.625\nsamples = 4\nvalue = [1, 2, 0, 1]"] ;
390 -> 392 ;
393 [label="gini = 0.0\nsamples = 1\nvalue = [1, 0, 0, 0]"] ;
392 -> 393 ;
394 [label="x[1] <= 1.5\ngini = 0.444\nsamples = 3\nvalue = [0, 2, 0, 1]"] ;
392 -> 394 ;
395 [label="x[0] <= 241.5\ngini = 0.5\nsamples = 2\nvalue = [0, 1, 0, 1]"] ;
394 -> 395 ;
396 [label="gini = 0.0\nsamples = 1\nvalue = [0, 1, 0, 0]"] ;
395 -> 396 ;
397 [label="gini = 0.0\nsamples = 1\nvalue = [0, 0, 0, 1]"] ;
395 -> 397 ;
398 [label="gini = 0.0\nsamples = 1\nvalue = [0, 1, 0, 0]"] ;
394 -> 398 ;
399 [label="gini = 0.0\nsamples = 1\nvalue = [1, 0, 0, 0]"] ;
389 -> 399 ;
400 [label="gini = 0.0\nsamples = 2\nvalue = [0, 0, 0, 2]"] ;
386 -> 400 ;
401 [label="x[0] <= 274.0\ngini = 0.627\nsamples = 26\nvalue = [6, 4, 2, 14]"] ;
385 -> 401 ;
402 [label="x[0] <= 231.5\ngini = 0.608\nsamples = 25\nvalue = [6, 3, 2, 14]"] ;
401 -> 402 ;
403 [label="x[0] <= 226.5\ngini = 0.64\nsamples = 5\nvalue = [1, 2, 0, 2]"] ;
402 -> 403 ;
404 [label="gini = 0.0\nsamples = 1\nvalue = [0, 0, 0, 1]"] ;
403 -> 404 ;
405 [label="x[0] <= 228.0\ngini = 0.625\nsamples = 4\nvalue = [1, 2, 0, 1]"] ;
403 -> 405 ;
406 [label="x[1] <= 1.5\ngini = 0.5\nsamples = 2\nvalue = [1, 1, 0, 0]"] ;
405 -> 406 ;
407 [label="gini = 0.0\nsamples = 1\nvalue = [0, 1, 0, 0]"] ;
406 -> 407 ;
408 [label="gini = 0.0\nsamples = 1\nvalue = [1, 0, 0, 0]"] ;
406 -> 408 ;
409 [label="x[0] <= 230.0\ngini = 0.5\nsamples = 2\nvalue = [0, 1, 0, 1]"] ;
405 -> 409 ;
410 [label="gini = 0.0\nsamples = 1\nvalue = [0, 0, 0, 1]"] ;
409 -> 410 ;
411 [label="gini = 0.0\nsamples = 1\nvalue = [0, 1, 0, 0]"] ;
409 -> 411 ;
412 [label="x[0] <= 250.0\ngini = 0.565\nsamples = 20\nvalue = [5, 1, 2, 12]"] ;
402 -> 412 ;
413 [label="x[1] <= 1.5\ngini = 0.426\nsamples = 13\nvalue = [4, 0, 0, 9]"] ;
412 -> 413 ;
414 [label="gini = 0.0\nsamples = 5\nvalue = [0, 0, 0, 5]"] ;
413 -> 414 ;
415 [label="x[0] <= 232.5\ngini = 0.5\nsamples = 8\nvalue = [4, 0, 0, 4]"] ;
413 -> 415 ;
416 [label="gini = 0.0\nsamples = 2\nvalue = [0, 0, 0, 2]"] ;
415 -> 416 ;
417 [label="x[0] <= 233.5\ngini = 0.444\nsamples = 6\nvalue = [4, 0, 0, 2]"] ;
415 -> 417 ;
418 [label="gini = 0.0\nsamples = 1\nvalue = [1, 0, 0, 0]"] ;
417 -> 418 ;
419 [label="x[0] <= 235.0\ngini = 0.48\nsamples = 5\nvalue = [3, 0, 0, 2]"] ;
417 -> 419 ;
420 [label="gini = 0.0\nsamples = 1\nvalue = [0, 0, 0, 1]"] ;
419 -> 420 ;
421 [label="x[0] <= 244.0\ngini = 0.375\nsamples = 4\nvalue = [3, 0, 0, 1]"] ;
419 -> 421 ;
422 [label="gini = 0.0\nsamples = 2\nvalue = [2, 0, 0, 0]"] ;
421 -> 422 ;
423 [label="gini = 0.5\nsamples = 2\nvalue = [1, 0, 0, 1]"] ;
421 -> 423 ;
424 [label="x[0] <= 269.5\ngini = 0.694\nsamples = 7\nvalue = [1, 1, 2, 3]"] ;
412 -> 424 ;
425 [label="x[1] <= 1.5\ngini = 0.72\nsamples = 5\nvalue = [1, 1, 2, 1]"] ;
424 -> 425 ;
426 [label="gini = 0.0\nsamples = 1\nvalue = [1, 0, 0, 0]"] ;
425 -> 426 ;
427 [label="x[0] <= 254.0\ngini = 0.625\nsamples = 4\nvalue = [0, 1, 2, 1]"] ;
425 -> 427 ;
428 [label="gini = 0.0\nsamples = 1\nvalue = [0, 0, 1, 0]"] ;
427 -> 428 ;
429 [label="x[0] <= 262.5\ngini = 0.667\nsamples = 3\nvalue = [0, 1, 1, 1]"] ;
427 -> 429 ;
430 [label="gini = 0.5\nsamples = 2\nvalue = [0, 1, 0, 1]"] ;
429 -> 430 ;
431 [label="gini = 0.0\nsamples = 1\nvalue = [0, 0, 1, 0]"] ;
429 -> 431 ;
432 [label="gini = 0.0\nsamples = 2\nvalue = [0, 0, 0, 2]"] ;
424 -> 432 ;
433 [label="gini = 0.0\nsamples = 1\nvalue = [0, 1, 0, 0]"] ;
401 -> 433 ;
434 [label="gini = 0.0\nsamples = 1\nvalue = [0, 1, 0, 0]"] ;
384 -> 434 ;
435 [label="x[2] <= 4.5\ngini = 0.707\nsamples = 126\nvalue = [18, 45, 19, 44]"] ;
383 -> 435 ;
436 [label="x[1] <= 1.5\ngini = 0.726\nsamples = 95\nvalue = [17, 32, 16, 30]"] ;
435 -> 436 ;
437 [label="x[0] <= 245.0\ngini = 0.719\nsamples = 41\nvalue = [6, 9, 10, 16]"] ;
436 -> 437 ;
438 [label="x[0] <= 235.0\ngini = 0.625\nsamples = 20\nvalue = [2, 3, 4, 11]"] ;
437 -> 438 ;
439 [label="x[0] <= 229.5\ngini = 0.622\nsamples = 15\nvalue = [2, 1, 4, 8]"] ;
438 -> 439 ;
440 [label="x[2] <= 3.5\ngini = 0.667\nsamples = 3\nvalue = [1, 1, 0, 1]"] ;
439 -> 440 ;
441 [label="gini = 0.0\nsamples = 1\nvalue = [0, 1, 0, 0]"] ;
440 -> 441 ;
442 [label="gini = 0.5\nsamples = 2\nvalue = [1, 0, 0, 1]"] ;
440 -> 442 ;
443 [label="x[0] <= 231.5\ngini = 0.542\nsamples = 12\nvalue = [1, 0, 4, 7]"] ;
439 -> 443 ;
444 [label="x[0] <= 230.5\ngini = 0.444\nsamples = 3\nvalue = [0, 0, 2, 1]"] ;
443 -> 444 ;
445 [label="gini = 0.0\nsamples = 1\nvalue = [0, 0, 0, 1]"] ;
444 -> 445 ;
446 [label="gini = 0.0\nsamples = 2\nvalue = [0, 0, 2, 0]"] ;
444 -> 446 ;
447 [label="x[0] <= 233.5\ngini = 0.494\nsamples = 9\nvalue = [1, 0, 2, 6]"] ;
443 -> 447 ;
448 [label="x[2] <= 3.5\ngini = 0.32\nsamples = 5\nvalue = [0, 0, 1, 4]"] ;
447 -> 448 ;
449 [label="gini = 0.0\nsamples = 4\nvalue = [0, 0, 0, 4]"] ;
448 -> 449 ;
450 [label="gini = 0.0\nsamples = 1\nvalue = [0, 0, 1, 0]"] ;
448 -> 450 ;
451 [label="x[2] <= 3.5\ngini = 0.625\nsamples = 4\nvalue = [1, 0, 1, 2]"] ;
447 -> 451 ;
452 [label="gini = 0.667\nsamples = 3\nvalue = [1, 0, 1, 1]"] ;
451 -> 452 ;
453 [label="gini = 0.0\nsamples = 1\nvalue = [0, 0, 0, 1]"] ;
451 -> 453 ;
454 [label="x[0] <= 238.5\ngini = 0.48\nsamples = 5\nvalue = [0, 2, 0, 3]"] ;
438 -> 454 ;
455 [label="gini = 0.0\nsamples = 1\nvalue = [0, 1, 0, 0]"] ;
454 -> 455 ;
456 [label="x[2] <= 3.5\ngini = 0.375\nsamples = 4\nvalue = [0, 1, 0, 3]"] ;
454 -> 456 ;
457 [label="x[0] <= 242.5\ngini = 0.444\nsamples = 3\nvalue = [0, 1, 0, 2]"] ;
456 -> 457 ;
458 [label="gini = 0.5\nsamples = 2\nvalue = [0, 1, 0, 1]"] ;
457 -> 458 ;
459 [label="gini = 0.0\nsamples = 1\nvalue = [0, 0, 0, 1]"] ;
457 -> 459 ;
460 [label="gini = 0.0\nsamples = 1\nvalue = [0, 0, 0, 1]"] ;
456 -> 460 ;
461 [label="x[0] <= 253.5\ngini = 0.744\nsamples = 21\nvalue = [4, 6, 6, 5]"] ;
437 -> 461 ;
462 [label="x[0] <= 246.5\ngini = 0.667\nsamples = 9\nvalue = [3, 4, 1, 1]"] ;
461 -> 462 ;
463 [label="gini = 0.0\nsamples = 1\nvalue = [0, 0, 1, 0]"] ;
462 -> 463 ;
464 [label="x[0] <= 251.5\ngini = 0.594\nsamples = 8\nvalue = [3, 4, 0, 1]"] ;
462 -> 464 ;
465 [label="x[2] <= 3.5\ngini = 0.48\nsamples = 5\nvalue = [3, 2, 0, 0]"] ;
464 -> 465 ;
466 [label="gini = 0.0\nsamples = 2\nvalue = [2, 0, 0, 0]"] ;
465 -> 466 ;
467 [label="x[0] <= 248.0\ngini = 0.444\nsamples = 3\nvalue = [1, 2, 0, 0]"] ;
465 -> 467 ;
468 [label="gini = 0.0\nsamples = 1\nvalue = [0, 1, 0, 0]"] ;
467 -> 468 ;
469 [label="x[0] <= 250.0\ngini = 0.5\nsamples = 2\nvalue = [1, 1, 0, 0]"] ;
467 -> 469 ;
470 [label="gini = 0.0\nsamples = 1\nvalue = [1, 0, 0, 0]"] ;
469 -> 470 ;
471 [label="gini = 0.0\nsamples = 1\nvalue = [0, 1, 0, 0]"] ;
469 -> 471 ;
472 [label="x[2] <= 3.5\ngini = 0.444\nsamples = 3\nvalue = [0, 2, 0, 1]"] ;
464 -> 472 ;
473 [label="gini = 0.0\nsamples = 1\nvalue = [0, 1, 0, 0]"] ;
472 -> 473 ;
474 [label="gini = 0.5\nsamples = 2\nvalue = [0, 1, 0, 1]"] ;
472 -> 474 ;
475 [label="x[0] <= 265.0\ngini = 0.681\nsamples = 12\nvalue = [1, 2, 5, 4]"] ;
461 -> 475 ;
476 [label="x[0] <= 257.0\ngini = 0.469\nsamples = 8\nvalue = [0, 0, 5, 3]"] ;
475 -> 476 ;
477 [label="x[2] <= 3.5\ngini = 0.444\nsamples = 3\nvalue = [0, 0, 1, 2]"] ;
476 -> 477 ;
478 [label="gini = 0.0\nsamples = 1\nvalue = [0, 0, 0, 1]"] ;
477 -> 478 ;
479 [label="x[0] <= 255.5\ngini = 0.5\nsamples = 2\nvalue = [0, 0, 1, 1]"] ;
477 -> 479 ;
480 [label="gini = 0.0\nsamples = 1\nvalue = [0, 0, 1, 0]"] ;
479 -> 480 ;
481 [label="gini = 0.0\nsamples = 1\nvalue = [0, 0, 0, 1]"] ;
479 -> 481 ;
482 [label="x[0] <= 261.5\ngini = 0.32\nsamples = 5\nvalue = [0, 0, 4, 1]"] ;
476 -> 482 ;
483 [label="gini = 0.0\nsamples = 3\nvalue = [0, 0, 3, 0]"] ;
482 -> 483 ;
484 [label="x[0] <= 262.5\ngini = 0.5\nsamples = 2\nvalue = [0, 0, 1, 1]"] ;
482 -> 484 ;
485 [label="gini = 0.0\nsamples = 1\nvalue = [0, 0, 0, 1]"] ;
484 -> 485 ;
486 [label="gini = 0.0\nsamples = 1\nvalue = [0, 0, 1, 0]"] ;
484 -> 486 ;
487 [label="x[0] <= 274.5\ngini = 0.625\nsamples = 4\nvalue = [1, 2, 0, 1]"] ;
475 -> 487 ;
488 [label="gini = 0.0\nsamples = 2\nvalue = [0, 2, 0, 0]"] ;
487 -> 488 ;
489 [label="x[0] <= 276.5\ngini = 0.5\nsamples = 2\nvalue = [1, 0, 0, 1]"] ;
487 -> 489 ;
490 [label="gini = 0.0\nsamples = 1\nvalue = [0, 0, 0, 1]"] ;
489 -> 490 ;
491 [label="gini = 0.0\nsamples = 1\nvalue = [1, 0, 0, 0]"] ;
489 -> 491 ;
492 [label="x[0] <= 269.0\ngini = 0.698\nsamples = 54\nvalue = [11, 23, 6, 14]"] ;
436 -> 492 ;
493 [label="x[0] <= 256.5\ngini = 0.714\nsamples = 49\nvalue = [11, 19, 6, 13]"] ;
492 -> 493 ;
494 [label="x[0] <= 253.5\ngini = 0.671\nsamples = 37\nvalue = [5, 17, 4, 11]"] ;
493 -> 494 ;
495 [label="x[0] <= 250.5\ngini = 0.69\nsamples = 34\nvalue = [5, 14, 4, 11]"] ;
494 -> 495 ;
496 [label="x[0] <= 239.5\ngini = 0.676\nsamples = 30\nvalue = [4, 14, 4, 8]"] ;
495 -> 496 ;
497 [label="x[0] <= 238.5\ngini = 0.692\nsamples = 23\nvalue = [3, 9, 3, 8]"] ;
496 -> 497 ;
498 [label="x[0] <= 236.5\ngini = 0.674\nsamples = 22\nvalue = [2, 9, 3, 8]"] ;
497 -> 498 ;
499 [label="x[0] <= 233.5\ngini = 0.664\nsamples = 17\nvalue = [2, 8, 2, 5]"] ;
498 -> 499 ;
500 [label="x[0] <= 229.5\ngini = 0.681\nsamples = 12\nvalue = [2, 4, 1, 5]"] ;
499 -> 500 ;
501 [label="x[2] <= 3.5\ngini = 0.571\nsamples = 7\nvalue = [0, 4, 1, 2]"] ;
500 -> 501 ;
502 [label="gini = 0.5\nsamples = 2\nvalue = [0, 1, 1, 0]"] ;
501 -> 502 ;
503 [label="x[0] <= 226.5\ngini = 0.48\nsamples = 5\nvalue = [0, 3, 0, 2]"] ;
501 -> 503 ;
504 [label="gini = 0.0\nsamples = 1\nvalue = [0, 1, 0, 0]"] ;
503 -> 504 ;
505 [label="x[0] <= 227.5\ngini = 0.5\nsamples = 4\nvalue = [0, 2, 0, 2]"] ;
503 -> 505 ;
506 [label="gini = 0.0\nsamples = 1\nvalue = [0, 0, 0, 1]"] ;
505 -> 506 ;
507 [label="x[0] <= 228.5\ngini = 0.444\nsamples = 3\nvalue = [0, 2, 0, 1]"] ;
505 -> 507 ;
508 [label="gini = 0.5\nsamples = 2\nvalue = [0, 1, 0, 1]"] ;
507 -> 508 ;
509 [label="gini = 0.0\nsamples = 1\nvalue = [0, 1, 0, 0]"] ;
507 -> 509 ;
510 [label="x[2] <= 3.5\ngini = 0.48\nsamples = 5\nvalue = [2, 0, 0, 3]"] ;
500 -> 510 ;
511 [label="x[0] <= 232.5\ngini = 0.375\nsamples = 4\nvalue = [1, 0, 0, 3]"] ;
510 -> 511 ;
512 [label="gini = 0.444\nsamples = 3\nvalue = [1, 0, 0, 2]"] ;
511 -> 512 ;
513 [label="gini = 0.0\nsamples = 1\nvalue = [0, 0, 0, 1]"] ;
511 -> 513 ;
514 [label="gini = 0.0\nsamples = 1\nvalue = [1, 0, 0, 0]"] ;
510 -> 514 ;
515 [label="x[2] <= 3.5\ngini = 0.32\nsamples = 5\nvalue = [0, 4, 1, 0]"] ;
499 -> 515 ;
516 [label="gini = 0.0\nsamples = 2\nvalue = [0, 2, 0, 0]"] ;
515 -> 516 ;
517 [label="x[0] <= 235.5\ngini = 0.444\nsamples = 3\nvalue = [0, 2, 1, 0]"] ;
515 -> 517 ;
518 [label="gini = 0.5\nsamples = 2\nvalue = [0, 1, 1, 0]"] ;
517 -> 518 ;
519 [label="gini = 0.0\nsamples = 1\nvalue = [0, 1, 0, 0]"] ;
517 -> 519 ;
520 [label="x[0] <= 237.5\ngini = 0.56\nsamples = 5\nvalue = [0, 1, 1, 3]"] ;
498 -> 520 ;
521 [label="x[2] <= 3.5\ngini = 0.444\nsamples = 3\nvalue = [0, 1, 0, 2]"] ;
520 -> 521 ;
522 [label="gini = 0.0\nsamples = 2\nvalue = [0, 0, 0, 2]"] ;
521 -> 522 ;
523 [label="gini = 0.0\nsamples = 1\nvalue = [0, 1, 0, 0]"] ;
521 -> 523 ;
524 [label="x[2] <= 3.5\ngini = 0.5\nsamples = 2\nvalue = [0, 0, 1, 1]"] ;
520 -> 524 ;
525 [label="gini = 0.0\nsamples = 1\nvalue = [0, 0, 1, 0]"] ;
524 -> 525 ;
526 [label="gini = 0.0\nsamples = 1\nvalue = [0, 0, 0, 1]"] ;
524 -> 526 ;
527 [label="gini = 0.0\nsamples = 1\nvalue = [1, 0, 0, 0]"] ;
497 -> 527 ;
528 [label="x[0] <= 249.5\ngini = 0.449\nsamples = 7\nvalue = [1, 5, 1, 0]"] ;
496 -> 528 ;
529 [label="x[0] <= 248.0\ngini = 0.278\nsamples = 6\nvalue = [1, 5, 0, 0]"] ;
528 -> 529 ;
530 [label="gini = 0.0\nsamples = 4\nvalue = [0, 4, 0, 0]"] ;
529 -> 530 ;
531 [label="x[2] <= 3.5\ngini = 0.5\nsamples = 2\nvalue = [1, 1, 0, 0]"] ;
529 -> 531 ;
532 [label="gini = 0.0\nsamples = 1\nvalue = [1, 0, 0, 0]"] ;
531 -> 532 ;
533 [label="gini = 0.0\nsamples = 1\nvalue = [0, 1, 0, 0]"] ;
531 -> 533 ;
534 [label="gini = 0.0\nsamples = 1\nvalue = [0, 0, 1, 0]"] ;
528 -> 534 ;
535 [label="x[2] <= 3.5\ngini = 0.375\nsamples = 4\nvalue = [1, 0, 0, 3]"] ;
495 -> 535 ;
536 [label="x[0] <= 251.5\ngini = 0.5\nsamples = 2\nvalue = [1, 0, 0, 1]"] ;
535 -> 536 ;
537 [label="gini = 0.0\nsamples = 1\nvalue = [0, 0, 0, 1]"] ;
536 -> 537 ;
538 [label="gini = 0.0\nsamples = 1\nvalue = [1, 0, 0, 0]"] ;
536 -> 538 ;
539 [label="gini = 0.0\nsamples = 2\nvalue = [0, 0, 0, 2]"] ;
535 -> 539 ;
540 [label="gini = 0.0\nsamples = 3\nvalue = [0, 3, 0, 0]"] ;
494 -> 540 ;
541 [label="x[0] <= 265.5\ngini = 0.667\nsamples = 12\nvalue = [6, 2, 2, 2]"] ;
493 -> 541 ;
542 [label="x[0] <= 257.5\ngini = 0.593\nsamples = 9\nvalue = [5, 2, 2, 0]"] ;
541 -> 542 ;
543 [label="gini = 0.0\nsamples = 1\nvalue = [1, 0, 0, 0]"] ;
542 -> 543 ;
544 [label="x[0] <= 258.5\ngini = 0.625\nsamples = 8\nvalue = [4, 2, 2, 0]"] ;
542 -> 544 ;
545 [label="gini = 0.0\nsamples = 1\nvalue = [0, 1, 0, 0]"] ;
544 -> 545 ;
546 [label="x[0] <= 261.5\ngini = 0.571\nsamples = 7\nvalue = [4, 1, 2, 0]"] ;
544 -> 546 ;
547 [label="x[0] <= 259.5\ngini = 0.375\nsamples = 4\nvalue = [3, 0, 1, 0]"] ;
546 -> 547 ;
548 [label="gini = 0.5\nsamples = 2\nvalue = [1, 0, 1, 0]"] ;
547 -> 548 ;
549 [label="gini = 0.0\nsamples = 2\nvalue = [2, 0, 0, 0]"] ;
547 -> 549 ;
550 [label="x[0] <= 263.5\ngini = 0.667\nsamples = 3\nvalue = [1, 1, 1, 0]"] ;
546 -> 550 ;
551 [label="gini = 0.0\nsamples = 1\nvalue = [0, 1, 0, 0]"] ;
550 -> 551 ;
552 [label="x[2] <= 3.5\ngini = 0.5\nsamples = 2\nvalue = [1, 0, 1, 0]"] ;
550 -> 552 ;
553 [label="gini = 0.0\nsamples = 1\nvalue = [1, 0, 0, 0]"] ;
552 -> 553 ;
554 [label="gini = 0.0\nsamples = 1\nvalue = [0, 0, 1, 0]"] ;
552 -> 554 ;
555 [label="x[0] <= 267.0\ngini = 0.444\nsamples = 3\nvalue = [1, 0, 0, 2]"] ;
541 -> 555 ;
556 [label="x[2] <= 3.5\ngini = 0.5\nsamples = 2\nvalue = [1, 0, 0, 1]"] ;
555 -> 556 ;
557 [label="gini = 0.0\nsamples = 1\nvalue = [1, 0, 0, 0]"] ;
556 -> 557 ;
558 [label="gini = 0.0\nsamples = 1\nvalue = [0, 0, 0, 1]"] ;
556 -> 558 ;
559 [label="gini = 0.0\nsamples = 1\nvalue = [0, 0, 0, 1]"] ;
555 -> 559 ;
560 [label="x[2] <= 3.5\ngini = 0.32\nsamples = 5\nvalue = [0, 4, 0, 1]"] ;
492 -> 560 ;
561 [label="gini = 0.0\nsamples = 3\nvalue = [0, 3, 0, 0]"] ;
560 -> 561 ;
562 [label="gini = 0.5\nsamples = 2\nvalue = [0, 1, 0, 1]"] ;
560 -> 562 ;
563 [label="x[0] <= 236.5\ngini = 0.61\nsamples = 31\nvalue = [1, 13, 3, 14]"] ;
435 -> 563 ;
564 [label="x[1] <= 1.5\ngini = 0.219\nsamples = 8\nvalue = [0, 7, 0, 1]"] ;
563 -> 564 ;
565 [label="gini = 0.0\nsamples = 6\nvalue = [0, 6, 0, 0]"] ;
564 -> 565 ;
566 [label="x[0] <= 234.5\ngini = 0.5\nsamples = 2\nvalue = [0, 1, 0, 1]"] ;
564 -> 566 ;
567 [label="gini = 0.0\nsamples = 1\nvalue = [0, 1, 0, 0]"] ;
566 -> 567 ;
568 [label="gini = 0.0\nsamples = 1\nvalue = [0, 0, 0, 1]"] ;
566 -> 568 ;
569 [label="x[0] <= 244.5\ngini = 0.594\nsamples = 23\nvalue = [1, 6, 3, 13]"] ;
563 -> 569 ;
570 [label="gini = 0.0\nsamples = 4\nvalue = [0, 0, 0, 4]"] ;
569 -> 570 ;
571 [label="x[0] <= 250.5\ngini = 0.648\nsamples = 19\nvalue = [1, 6, 3, 9]"] ;
569 -> 571 ;
572 [label="x[1] <= 1.5\ngini = 0.444\nsamples = 3\nvalue = [1, 2, 0, 0]"] ;
571 -> 572 ;
573 [label="gini = 0.0\nsamples = 1\nvalue = [0, 1, 0, 0]"] ;
572 -> 573 ;
574 [label="x[0] <= 247.0\ngini = 0.5\nsamples = 2\nvalue = [1, 1, 0, 0]"] ;
572 -> 574 ;
575 [label="gini = 0.0\nsamples = 1\nvalue = [1, 0, 0, 0]"] ;
574 -> 575 ;
576 [label="gini = 0.0\nsamples = 1\nvalue = [0, 1, 0, 0]"] ;
574 -> 576 ;
577 [label="x[0] <= 260.0\ngini = 0.586\nsamples = 16\nvalue = [0, 4, 3, 9]"] ;
571 -> 577 ;
578 [label="x[0] <= 253.5\ngini = 0.444\nsamples = 3\nvalue = [0, 0, 2, 1]"] ;
577 -> 578 ;
579 [label="gini = 0.0\nsamples = 1\nvalue = [0, 0, 0, 1]"] ;
578 -> 579 ;
580 [label="gini = 0.0\nsamples = 2\nvalue = [0, 0, 2, 0]"] ;
578 -> 580 ;
581 [label="x[0] <= 269.0\ngini = 0.521\nsamples = 13\nvalue = [0, 4, 1, 8]"] ;
577 -> 581 ;
582 [label="x[0] <= 263.0\ngini = 0.58\nsamples = 10\nvalue = [0, 4, 1, 5]"] ;
581 -> 582 ;
583 [label="x[0] <= 261.5\ngini = 0.32\nsamples = 5\nvalue = [0, 1, 0, 4]"] ;
582 -> 583 ;
584 [label="gini = 0.0\nsamples = 2\nvalue = [0, 0, 0, 2]"] ;
583 -> 584 ;
585 [label="x[1] <= 1.5\ngini = 0.444\nsamples = 3\nvalue = [0, 1, 0, 2]"] ;
583 -> 585 ;
586 [label="gini = 0.0\nsamples = 1\nvalue = [0, 0, 0, 1]"] ;
585 -> 586 ;
587 [label="gini = 0.5\nsamples = 2\nvalue = [0, 1, 0, 1]"] ;
585 -> 587 ;
588 [label="x[0] <= 265.0\ngini = 0.56\nsamples = 5\nvalue = [0, 3, 1, 1]"] ;
582 -> 588 ;
589 [label="gini = 0.0\nsamples = 1\nvalue = [0, 0, 1, 0]"] ;
588 -> 589 ;
590 [label="x[0] <= 266.5\ngini = 0.375\nsamples = 4\nvalue = [0, 3, 0, 1]"] ;
588 -> 590 ;
591 [label="gini = 0.0\nsamples = 2\nvalue = [0, 2, 0, 0]"] ;
590 -> 591 ;
592 [label="gini = 0.5\nsamples = 2\nvalue = [0, 1, 0, 1]"] ;
590 -> 592 ;
593 [label="gini = 0.0\nsamples = 3\nvalue = [0, 0, 0, 3]"] ;
581 -> 593 ;
594 [label="x[0] <= 288.5\ngini = 0.715\nsamples = 20\nvalue = [7, 2, 5, 6]"] ;
0 -> 594 [labeldistance=2.5, labelangle=-45, headlabel="False"] ;
595 [label="x[2] <= 2.0\ngini = 0.688\nsamples = 8\nvalue = [1, 1, 3, 3]"] ;
594 -> 595 ;
596 [label="x[0] <= 280.5\ngini = 0.5\nsamples = 2\nvalue = [1, 1, 0, 0]"] ;
595 -> 596 ;
597 [label="gini = 0.0\nsamples = 1\nvalue = [1, 0, 0, 0]"] ;
596 -> 597 ;
598 [label="gini = 0.0\nsamples = 1\nvalue = [0, 1, 0, 0]"] ;
596 -> 598 ;
599 [label="x[2] <= 3.5\ngini = 0.5\nsamples = 6\nvalue = [0, 0, 3, 3]"] ;
595 -> 599 ;
600 [label="gini = 0.0\nsamples = 2\nvalue = [0, 0, 0, 2]"] ;
599 -> 600 ;
601 [label="x[0] <= 287.5\ngini = 0.375\nsamples = 4\nvalue = [0, 0, 3, 1]"] ;
599 -> 601 ;
602 [label="gini = 0.0\nsamples = 3\nvalue = [0, 0, 3, 0]"] ;
601 -> 602 ;
603 [label="gini = 0.0\nsamples = 1\nvalue = [0, 0, 0, 1]"] ;
601 -> 603 ;
604 [label="x[1] <= 1.5\ngini = 0.653\nsamples = 12\nvalue = [6, 1, 2, 3]"] ;
594 -> 604 ;
605 [label="gini = 0.0\nsamples = 1\nvalue = [0, 0, 0, 1]"] ;
604 -> 605 ;
606 [label="x[0] <= 296.5\ngini = 0.628\nsamples = 11\nvalue = [6, 1, 2, 2]"] ;
604 -> 606 ;
607 [label="x[2] <= 3.5\ngini = 0.531\nsamples = 8\nvalue = [5, 0, 2, 1]"] ;
606 -> 607 ;
608 [label="x[0] <= 293.5\ngini = 0.444\nsamples = 3\nvalue = [2, 0, 0, 1]"] ;
607 -> 608 ;
609 [label="gini = 0.5\nsamples = 2\nvalue = [1, 0, 0, 1]"] ;
608 -> 609 ;
610 [label="gini = 0.0\nsamples = 1\nvalue = [1, 0, 0, 0]"] ;
608 -> 610 ;
611 [label="x[0] <= 290.5\ngini = 0.48\nsamples = 5\nvalue = [3, 0, 2, 0]"] ;
607 -> 611 ;
612 [label="gini = 0.0\nsamples = 1\nvalue = [1, 0, 0, 0]"] ;
611 -> 612 ;
613 [label="x[0] <= 292.5\ngini = 0.5\nsamples = 4\nvalue = [2, 0, 2, 0]"] ;
611 -> 613 ;
614 [label="x[2] <= 4.5\ngini = 0.5\nsamples = 2\nvalue = [1, 0, 1, 0]"] ;
613 -> 614 ;
615 [label="gini = 0.0\nsamples = 1\nvalue = [0, 0, 1, 0]"] ;
614 -> 615 ;
616 [label="gini = 0.0\nsamples = 1\nvalue = [1, 0, 0, 0]"] ;
614 -> 616 ;
617 [label="x[2] <= 4.5\ngini = 0.5\nsamples = 2\nvalue = [1, 0, 1, 0]"] ;
613 -> 617 ;
618 [label="gini = 0.0\nsamples = 1\nvalue = [1, 0, 0, 0]"] ;
617 -> 618 ;
619 [label="gini = 0.0\nsamples = 1\nvalue = [0, 0, 1, 0]"] ;
617 -> 619 ;
620 [label="x[2] <= 4.5\ngini = 0.667\nsamples = 3\nvalue = [1, 1, 0, 1]"] ;
606 -> 620 ;
621 [label="gini = 0.0\nsamples = 1\nvalue = [0, 1, 0, 0]"] ;
620 -> 621 ;
622 [label="gini = 0.5\nsamples = 2\nvalue = [1, 0, 0, 1]"] ;
620 -> 622 ;
}